 -1.9670000000E+01   1.5429668575E-06   1.5429668575E-06   0.0000000000E+00
 -1.9660000000E+01   6.2055409071E-06   6.2055409071E-06   0.0000000000E+00
 -1.9650000000E+01   1.5415720403E-05   1.5415720403E-05   0.0000000000E+00
 -1.9640000000E+01   3.6740820995E-05   3.6740820995E-05   0.0000000000E+00
 -1.9630000000E+01   7.2136433320E-05   7.2136433320E-05   0.0000000000E+00
 -1.9620000000E+01   1.3999783056E-04   1.3999783056E-04   0.0000000000E+00
 -1.9610000000E+01   2.6471929893E-04   2.6471929893E-04   0.0000000000E+00
 -1.9600000000E+01   4.8714541588E-04   4.8714541588E-04   0.0000000000E+00
 -1.9590000000E+01   8.7968407818E-04   8.7968407818E-04   0.0000000000E+00
 -1.9580000000E+01   1.5580119551E-03   1.5580119551E-03   0.0000000000E+00
 -1.9570000000E+01   2.7096894178E-03   2.7096894178E-03   0.0000000000E+00
 -1.9560000000E+01   4.6262414139E-03   4.6262414139E-03   0.0000000000E+00
 -1.9550000000E+01   7.7485405217E-03   7.7485405217E-03   0.0000000000E+00
 -1.9540000000E+01   1.2717175475E-02   1.2717175475E-02   0.0000000000E+00
 -1.9530000000E+01   2.0485693951E-02   2.0485693951E-02   0.0000000000E+00
 -1.9520000000E+01   3.2383227927E-02   3.2383227927E-02   0.0000000000E+00
 -1.9510000000E+01   5.0214995531E-02   5.0212945803E-02   2.0497279846E-06
 -1.9500000000E+01   7.6430322461E-02   7.6421812394E-02   8.5100666400E-06
 -1.9490000000E+01   1.1420683985E-01   1.1418125951E-01   2.5580342238E-05
 -1.9480000000E+01   1.6755676611E-01   1.6750599357E-01   5.0772541322E-05
 -1.9470000000E+01   2.4143464895E-01   2.4133505779E-01   9.9591158405E-05
 -1.9460000000E+01   3.4175900404E-01   3.4156868083E-01   1.9032321275E-04
 -1.9450000000E+01   4.7539931853E-01   4.7504529324E-01   3.5402529162E-04
 -1.9440000000E+01   6.5009345092E-01   6.4944764464E-01   6.4580627812E-04
 -1.9430000000E+01   8.7429095236E-01   8.7313485242E-01   1.1560999369E-03
 -1.9420000000E+01   1.1569373475E+00   1.1549076085E+00   2.0297390340E-03
 -1.9410000000E+01   1.5072293542E+00   1.5037247575E+00   3.5045967121E-03
 -1.9400000000E+01   1.9343335908E+00   1.9283982137E+00   5.9353771065E-03
 -1.9390000000E+01   2.4471429865E+00   2.4372964438E+00   9.8465427161E-03
 -1.9380000000E+01   3.0541032950E+00   3.0380816722E+00   1.6021622771E-02
 -1.9370000000E+01   3.7630902672E+00   3.7374911851E+00   2.5599082130E-02
 -1.9360000000E+01   4.5812568808E+00   4.5411497424E+00   4.0107138379E-02
 -1.9350000000E+01   5.5150396816E+00   5.4533723646E+00   6.1667317017E-02
 -1.9340000000E+01   6.5699658196E+00   6.4768918111E+00   9.3074008490E-02
 -1.9330000000E+01   7.7503494124E+00   7.6124319316E+00   1.3791748080E-01
 -1.9320000000E+01   9.0587422656E+00   8.8580555086E+00   2.0068675705E-01
 -1.9310000000E+01   1.0495084682E+01   1.0208249095E+01   2.8683558698E-01
 -1.9300000000E+01   1.2055565016E+01   1.1652767982E+01   4.0279703421E-01
 -1.9290000000E+01   1.3731277400E+01   1.3175344791E+01   5.5593260927E-01
 -1.9280000000E+01   1.5506858644E+01   1.4752450777E+01   7.5440786695E-01
 -1.9270000000E+01   1.7359365196E+01   1.6352369829E+01   1.0069953668E+00
 -1.9260000000E+01   1.9257696329E+01   1.7934879806E+01   1.3228165235E+00
 -1.9250000000E+01   2.1162860452E+01   1.9451816654E+01   1.7110437975E+00
 -1.9240000000E+01   2.3029305913E+01   2.0848715067E+01   2.1805908462E+00
 -1.9230000000E+01   2.4807397344E+01   2.2067579747E+01   2.7398175971E+00
 -1.9220000000E+01   2.6446929873E+01   2.3050662287E+01   3.3962675858E+00
 -1.9210000000E+01   2.7901366853E+01   2.3744930663E+01   4.1564361903E+00
 -1.9200000000E+01   2.9132301362E+01   2.4106758071E+01   5.0255432909E+00
 -1.9190000000E+01   3.0113518417E+01   2.4106260265E+01   6.0072581522E+00
 -1.9180000000E+01   3.0834006983E+01   2.3730700835E+01   7.1033061479E+00
 -1.9170000000E+01   3.1299356286E+01   2.2986471004E+01   8.3128852817E+00
 -1.9160000000E+01   3.1531166661E+01   2.1899324091E+01   9.6318425700E+00
 -1.9150000000E+01   3.1564386051E+01   2.0512776899E+01   1.1051609152E+01
 -1.9140000000E+01   3.1442805414E+01   1.8884840688E+01   1.2557964726E+01
 -1.9130000000E+01   3.1213254578E+01   1.7083469248E+01   1.4129785330E+01
 -1.9120000000E+01   3.0919278339E+01   1.5181272542E+01   1.5738005797E+01
 -1.9110000000E+01   3.0595194670E+01   1.3250116371E+01   1.7345078299E+01
 -1.9100000000E+01   3.0261415795E+01   1.1356204240E+01   1.8905211555E+01
 -1.9090000000E+01   2.9921746676E+01   9.5561278522E+00   2.0365618823E+01
 -1.9080000000E+01   2.9563088475E+01   7.8942029833E+00   2.1668885492E+01
 -1.9070000000E+01   2.9157613266E+01   6.4012113626E+00   2.2756401904E+01
 -1.9060000000E+01   2.8667101014E+01   5.0944811032E+00   2.3572619910E+01
 -1.9050000000E+01   2.8048804041E+01   3.9790865919E+00   2.4069717449E+01
 -1.9040000000E+01   2.7261982130E+01   3.0498515178E+00   2.4212130612E+01
 -1.9030000000E+01   2.6274168775E+01   2.2938015999E+00   2.3980367175E+01
 -1.9020000000E+01   2.5066296357E+01   1.6927311040E+00   2.3373565253E+01
 -1.9010000000E+01   2.3636008912E+01   1.2256058329E+00   2.2410403080E+01
 -1.9000000000E+01   2.1998786773E+01   8.7060740472E-01   2.1128179368E+01
 -1.8990000000E+01   2.0186843887E+01   6.0671178819E-01   1.9580132099E+01
 -1.8980000000E+01   1.8246078173E+01   4.1477492215E-01   1.7831303250E+01
 -1.8970000000E+01   1.6231606891E+01   2.7816042187E-01   1.5953446469E+01
 -1.8960000000E+01   1.4202567580E+01   1.8298477602E-01   1.4019582804E+01
 -1.8950000000E+01   1.2216895548E+01   1.1807356861E-01   1.2098821980E+01
 -1.8940000000E+01   1.0326716546E+01   7.4729326967E-02   1.0251987219E+01
 -1.8930000000E+01   8.5748202389E+00   4.6389363794E-02   8.5284308751E+00
 -1.8920000000E+01   6.9924808735E+00   2.8243390925E-02   6.9642374826E+00
 -1.8910000000E+01   5.5986815269E+00   1.6866190517E-02   5.5818153364E+00
 -1.8900000000E+01   4.4005865478E+00   9.8776026296E-03   4.3907089451E+00
 -1.8890000000E+01   3.3950180436E+00   5.6730216504E-03   3.3893450220E+00
 -1.8880000000E+01   2.5705603452E+00   3.1957582666E-03   2.5673645869E+00
 -1.8870000000E+01   1.9099568733E+00   1.7651259058E-03   1.9081917474E+00
 -1.8860000000E+01   1.3924903394E+00   9.5550770336E-04   1.3915348317E+00
 -1.8850000000E+01   9.9609691170E-01   5.0574203321E-04   9.9559116967E-01
 -1.8840000000E+01   6.9907197353E-01   2.5704679094E-04   6.9881492674E-01
 -1.8830000000E+01   4.8131729451E-01   1.2518566105E-04   4.8119210885E-01
 -1.8820000000E+01   3.2509737752E-01   6.0626226135E-05   3.2503675130E-01
 -1.8810000000E+01   2.1539297699E-01   2.1689794194E-05   2.1537128720E-01
 -1.8800000000E+01   1.3998106817E-01   0.0000000000E+00   1.3998106817E-01
 -1.8790000000E+01   8.9239900752E-02   0.0000000000E+00   8.9239900752E-02
 -1.8780000000E+01   5.5800881186E-02   0.0000000000E+00   5.5800881186E-02
 -1.8770000000E+01   3.4218693120E-02   0.0000000000E+00   3.4218693120E-02
 -1.8760000000E+01   2.0583985090E-02   0.0000000000E+00   2.0583985090E-02
 -1.8750000000E+01   1.2142609370E-02   0.0000000000E+00   1.2142609370E-02
 -1.8740000000E+01   7.0247750857E-03   0.0000000000E+00   7.0247750857E-03
 -1.8730000000E+01   3.9862324418E-03   0.0000000000E+00   3.9862324418E-03
 -1.8720000000E+01   2.2183004110E-03   0.0000000000E+00   2.2183004110E-03
 -1.8710000000E+01   1.2103745864E-03   0.0000000000E+00   1.2103745864E-03
 -1.8700000000E+01   6.4722610291E-04   0.0000000000E+00   6.4722610291E-04
 -1.8690000000E+01   3.3487487404E-04   0.0000000000E+00   3.3487487404E-04
 -1.8680000000E+01   1.6411264202E-04   0.0000000000E+00   1.6411264202E-04
 -1.8670000000E+01   8.0113606410E-05   0.0000000000E+00   8.0113606410E-05
 -1.8660000000E+01   3.6071758505E-05   0.0000000000E+00   3.6071758505E-05
 -1.8650000000E+01   4.0179440258E-06   0.0000000000E+00   4.0179440258E-06
 -1.8640000000E+01   0.0000000000E+00   0.0000000000E+00   0.0000000000E+00
 -1.8630000000E+01   0.0000000000E+00   0.0000000000E+00   0.0000000000E+00
 -1.8620000000E+01   0.0000000000E+00   0.0000000000E+00   0.0000000000E+00
 -1.8610000000E+01   0.0000000000E+00   0.0000000000E+00   0.0000000000E+00
 -1.8600000000E+01   0.0000000000E+00   0.0000000000E+00   0.0000000000E+00
 -1.8590000000E+01   0.0000000000E+00   0.0000000000E+00   0.0000000000E+00
 -1.8580000000E+01   0.0000000000E+00   0.0000000000E+00   0.0000000000E+00
 -1.8570000000E+01   0.0000000000E+00   0.0000000000E+00   0.0000000000E+00
 -1.8560000000E+01   0.0000000000E+00   0.0000000000E+00   0.0000000000E+00
 -1.8550000000E+01   0.0000000000E+00   0.0000000000E+00   0.0000000000E+00
 -1.8540000000E+01   0.0000000000E+00   0.0000000000E+00   0.0000000000E+00
 -1.8530000000E+01   0.0000000000E+00   0.0000000000E+00   0.0000000000E+00
 -1.8520000000E+01   0.0000000000E+00   0.0000000000E+00   0.0000000000E+00
 -1.8510000000E+01   0.0000000000E+00   0.0000000000E+00   0.0000000000E+00
 -1.8500000000E+01   0.0000000000E+00   0.0000000000E+00   0.0000000000E+00
 -1.8490000000E+01   0.0000000000E+00   0.0000000000E+00   0.0000000000E+00
 -1.8480000000E+01   0.0000000000E+00   0.0000000000E+00   0.0000000000E+00
 -1.8470000000E+01   0.0000000000E+00   0.0000000000E+00   0.0000000000E+00
 -1.8460000000E+01   0.0000000000E+00   0.0000000000E+00   0.0000000000E+00
 -1.8450000000E+01   0.0000000000E+00   0.0000000000E+00   0.0000000000E+00
 -1.8440000000E+01   0.0000000000E+00   0.0000000000E+00   0.0000000000E+00
 -1.8430000000E+01   0.0000000000E+00   0.0000000000E+00   0.0000000000E+00
 -1.8420000000E+01   0.0000000000E+00   0.0000000000E+00   0.0000000000E+00
 -1.8410000000E+01   0.0000000000E+00   0.0000000000E+00   0.0000000000E+00
 -1.8400000000E+01   0.0000000000E+00   0.0000000000E+00   0.0000000000E+00
 -1.8390000000E+01   0.0000000000E+00   0.0000000000E+00   0.0000000000E+00
 -1.8380000000E+01   0.0000000000E+00   0.0000000000E+00   0.0000000000E+00
 -1.8370000000E+01   0.0000000000E+00   0.0000000000E+00   0.0000000000E+00
 -1.8360000000E+01   0.0000000000E+00   0.0000000000E+00   0.0000000000E+00
 -1.8350000000E+01   0.0000000000E+00   0.0000000000E+00   0.0000000000E+00
 -1.8340000000E+01   0.0000000000E+00   0.0000000000E+00   0.0000000000E+00
 -1.8330000000E+01   0.0000000000E+00   0.0000000000E+00   0.0000000000E+00
 -1.8320000000E+01   0.0000000000E+00   0.0000000000E+00   0.0000000000E+00
 -1.8310000000E+01   0.0000000000E+00   0.0000000000E+00   0.0000000000E+00
 -1.8300000000E+01   0.0000000000E+00   0.0000000000E+00   0.0000000000E+00
 -1.8290000000E+01   0.0000000000E+00   0.0000000000E+00   0.0000000000E+00
 -1.8280000000E+01   0.0000000000E+00   0.0000000000E+00   0.0000000000E+00
 -1.8270000000E+01   0.0000000000E+00   0.0000000000E+00   0.0000000000E+00
 -1.8260000000E+01   0.0000000000E+00   0.0000000000E+00   0.0000000000E+00
 -1.8250000000E+01   0.0000000000E+00   0.0000000000E+00   0.0000000000E+00
 -1.8240000000E+01   0.0000000000E+00   0.0000000000E+00   0.0000000000E+00
 -1.8230000000E+01   0.0000000000E+00   0.0000000000E+00   0.0000000000E+00
 -1.8220000000E+01   0.0000000000E+00   0.0000000000E+00   0.0000000000E+00
 -1.8210000000E+01   0.0000000000E+00   0.0000000000E+00   0.0000000000E+00
 -1.8200000000E+01   0.0000000000E+00   0.0000000000E+00   0.0000000000E+00
 -1.8190000000E+01   0.0000000000E+00   0.0000000000E+00   0.0000000000E+00
 -1.8180000000E+01   0.0000000000E+00   0.0000000000E+00   0.0000000000E+00
 -1.8170000000E+01   0.0000000000E+00   0.0000000000E+00   0.0000000000E+00
 -1.8160000000E+01   0.0000000000E+00   0.0000000000E+00   0.0000000000E+00
 -1.8150000000E+01   0.0000000000E+00   0.0000000000E+00   0.0000000000E+00
 -1.8140000000E+01   0.0000000000E+00   0.0000000000E+00   0.0000000000E+00
 -1.8130000000E+01   0.0000000000E+00   0.0000000000E+00   0.0000000000E+00
 -1.8120000000E+01   0.0000000000E+00   0.0000000000E+00   0.0000000000E+00
 -1.8110000000E+01   0.0000000000E+00   0.0000000000E+00   0.0000000000E+00
 -1.8100000000E+01   0.0000000000E+00   0.0000000000E+00   0.0000000000E+00
 -1.8090000000E+01   0.0000000000E+00   0.0000000000E+00   0.0000000000E+00
 -1.8080000000E+01   0.0000000000E+00   0.0000000000E+00   0.0000000000E+00
 -1.8070000000E+01   0.0000000000E+00   0.0000000000E+00   0.0000000000E+00
 -1.8060000000E+01   0.0000000000E+00   0.0000000000E+00   0.0000000000E+00
 -1.8050000000E+01   0.0000000000E+00   0.0000000000E+00   0.0000000000E+00
 -1.8040000000E+01   0.0000000000E+00   0.0000000000E+00   0.0000000000E+00
 -1.8030000000E+01   0.0000000000E+00   0.0000000000E+00   0.0000000000E+00
 -1.8020000000E+01   0.0000000000E+00   0.0000000000E+00   0.0000000000E+00
 -1.8010000000E+01   0.0000000000E+00   0.0000000000E+00   0.0000000000E+00
 -1.8000000000E+01   0.0000000000E+00   0.0000000000E+00   0.0000000000E+00
 -1.7990000000E+01   0.0000000000E+00   0.0000000000E+00   0.0000000000E+00
 -1.7980000000E+01   0.0000000000E+00   0.0000000000E+00   0.0000000000E+00
 -1.7970000000E+01   0.0000000000E+00   0.0000000000E+00   0.0000000000E+00
 -1.7960000000E+01   0.0000000000E+00   0.0000000000E+00   0.0000000000E+00
 -1.7950000000E+01   0.0000000000E+00   0.0000000000E+00   0.0000000000E+00
 -1.7940000000E+01   0.0000000000E+00   0.0000000000E+00   0.0000000000E+00
 -1.7930000000E+01   0.0000000000E+00   0.0000000000E+00   0.0000000000E+00
 -1.7920000000E+01   0.0000000000E+00   0.0000000000E+00   0.0000000000E+00
 -1.7910000000E+01   0.0000000000E+00   0.0000000000E+00   0.0000000000E+00
 -1.7900000000E+01   0.0000000000E+00   0.0000000000E+00   0.0000000000E+00
 -1.7890000000E+01   0.0000000000E+00   0.0000000000E+00   0.0000000000E+00
 -1.7880000000E+01   0.0000000000E+00   0.0000000000E+00   0.0000000000E+00
 -1.7870000000E+01   0.0000000000E+00   0.0000000000E+00   0.0000000000E+00
 -1.7860000000E+01   0.0000000000E+00   0.0000000000E+00   0.0000000000E+00
 -1.7850000000E+01   0.0000000000E+00   0.0000000000E+00   0.0000000000E+00
 -1.7840000000E+01   0.0000000000E+00   0.0000000000E+00   0.0000000000E+00
 -1.7830000000E+01   0.0000000000E+00   0.0000000000E+00   0.0000000000E+00
 -1.7820000000E+01   0.0000000000E+00   0.0000000000E+00   0.0000000000E+00
 -1.7810000000E+01   0.0000000000E+00   0.0000000000E+00   0.0000000000E+00
 -1.7800000000E+01   0.0000000000E+00   0.0000000000E+00   0.0000000000E+00
 -1.7790000000E+01   0.0000000000E+00   0.0000000000E+00   0.0000000000E+00
 -1.7780000000E+01   0.0000000000E+00   0.0000000000E+00   0.0000000000E+00
 -1.7770000000E+01   0.0000000000E+00   0.0000000000E+00   0.0000000000E+00
 -1.7760000000E+01   0.0000000000E+00   0.0000000000E+00   0.0000000000E+00
 -1.7750000000E+01   0.0000000000E+00   0.0000000000E+00   0.0000000000E+00
 -1.7740000000E+01   0.0000000000E+00   0.0000000000E+00   0.0000000000E+00
 -1.7730000000E+01   0.0000000000E+00   0.0000000000E+00   0.0000000000E+00
 -1.7720000000E+01   0.0000000000E+00   0.0000000000E+00   0.0000000000E+00
 -1.7710000000E+01   0.0000000000E+00   0.0000000000E+00   0.0000000000E+00
 -1.7700000000E+01   0.0000000000E+00   0.0000000000E+00   0.0000000000E+00
 -1.7690000000E+01   0.0000000000E+00   0.0000000000E+00   0.0000000000E+00
 -1.7680000000E+01   0.0000000000E+00   0.0000000000E+00   0.0000000000E+00
 -1.7670000000E+01   0.0000000000E+00   0.0000000000E+00   0.0000000000E+00
 -1.7660000000E+01   0.0000000000E+00   0.0000000000E+00   0.0000000000E+00
 -1.7650000000E+01   0.0000000000E+00   0.0000000000E+00   0.0000000000E+00
 -1.7640000000E+01   0.0000000000E+00   0.0000000000E+00   0.0000000000E+00
 -1.7630000000E+01   0.0000000000E+00   0.0000000000E+00   0.0000000000E+00
 -1.7620000000E+01   0.0000000000E+00   0.0000000000E+00   0.0000000000E+00
 -1.7610000000E+01   0.0000000000E+00   0.0000000000E+00   0.0000000000E+00
 -1.7600000000E+01   0.0000000000E+00   0.0000000000E+00   0.0000000000E+00
 -1.7590000000E+01   0.0000000000E+00   0.0000000000E+00   0.0000000000E+00
 -1.7580000000E+01   0.0000000000E+00   0.0000000000E+00   0.0000000000E+00
 -1.7570000000E+01   0.0000000000E+00   0.0000000000E+00   0.0000000000E+00
 -1.7560000000E+01   0.0000000000E+00   0.0000000000E+00   0.0000000000E+00
 -1.7550000000E+01   0.0000000000E+00   0.0000000000E+00   0.0000000000E+00
 -1.7540000000E+01   0.0000000000E+00   0.0000000000E+00   0.0000000000E+00
 -1.7530000000E+01   0.0000000000E+00   0.0000000000E+00   0.0000000000E+00
 -1.7520000000E+01   0.0000000000E+00   0.0000000000E+00   0.0000000000E+00
 -1.7510000000E+01   0.0000000000E+00   0.0000000000E+00   0.0000000000E+00
 -1.7500000000E+01   0.0000000000E+00   0.0000000000E+00   0.0000000000E+00
 -1.7490000000E+01   0.0000000000E+00   0.0000000000E+00   0.0000000000E+00
 -1.7480000000E+01   0.0000000000E+00   0.0000000000E+00   0.0000000000E+00
 -1.7470000000E+01   0.0000000000E+00   0.0000000000E+00   0.0000000000E+00
 -1.7460000000E+01   0.0000000000E+00   0.0000000000E+00   0.0000000000E+00
 -1.7450000000E+01   0.0000000000E+00   0.0000000000E+00   0.0000000000E+00
 -1.7440000000E+01   0.0000000000E+00   0.0000000000E+00   0.0000000000E+00
 -1.7430000000E+01   0.0000000000E+00   0.0000000000E+00   0.0000000000E+00
 -1.7420000000E+01   0.0000000000E+00   0.0000000000E+00   0.0000000000E+00
 -1.7410000000E+01   0.0000000000E+00   0.0000000000E+00   0.0000000000E+00
 -1.7400000000E+01   0.0000000000E+00   0.0000000000E+00   0.0000000000E+00
 -1.7390000000E+01   0.0000000000E+00   0.0000000000E+00   0.0000000000E+00
 -1.7380000000E+01   0.0000000000E+00   0.0000000000E+00   0.0000000000E+00
 -1.7370000000E+01   0.0000000000E+00   0.0000000000E+00   0.0000000000E+00
 -1.7360000000E+01   0.0000000000E+00   0.0000000000E+00   0.0000000000E+00
 -1.7350000000E+01   0.0000000000E+00   0.0000000000E+00   0.0000000000E+00
 -1.7340000000E+01   0.0000000000E+00   0.0000000000E+00   0.0000000000E+00
 -1.7330000000E+01   0.0000000000E+00   0.0000000000E+00   0.0000000000E+00
 -1.7320000000E+01   0.0000000000E+00   0.0000000000E+00   0.0000000000E+00
 -1.7310000000E+01   0.0000000000E+00   0.0000000000E+00   0.0000000000E+00
 -1.7300000000E+01   0.0000000000E+00   0.0000000000E+00   0.0000000000E+00
 -1.7290000000E+01   0.0000000000E+00   0.0000000000E+00   0.0000000000E+00
 -1.7280000000E+01   0.0000000000E+00   0.0000000000E+00   0.0000000000E+00
 -1.7270000000E+01   0.0000000000E+00   0.0000000000E+00   0.0000000000E+00
 -1.7260000000E+01   0.0000000000E+00   0.0000000000E+00   0.0000000000E+00
 -1.7250000000E+01   0.0000000000E+00   0.0000000000E+00   0.0000000000E+00
 -1.7240000000E+01   0.0000000000E+00   0.0000000000E+00   0.0000000000E+00
 -1.7230000000E+01   0.0000000000E+00   0.0000000000E+00   0.0000000000E+00
 -1.7220000000E+01   0.0000000000E+00   0.0000000000E+00   0.0000000000E+00
 -1.7210000000E+01   0.0000000000E+00   0.0000000000E+00   0.0000000000E+00
 -1.7200000000E+01   0.0000000000E+00   0.0000000000E+00   0.0000000000E+00
 -1.7190000000E+01   0.0000000000E+00   0.0000000000E+00   0.0000000000E+00
 -1.7180000000E+01   0.0000000000E+00   0.0000000000E+00   0.0000000000E+00
 -1.7170000000E+01   0.0000000000E+00   0.0000000000E+00   0.0000000000E+00
 -1.7160000000E+01   0.0000000000E+00   0.0000000000E+00   0.0000000000E+00
 -1.7150000000E+01   0.0000000000E+00   0.0000000000E+00   0.0000000000E+00
 -1.7140000000E+01   0.0000000000E+00   0.0000000000E+00   0.0000000000E+00
 -1.7130000000E+01   0.0000000000E+00   0.0000000000E+00   0.0000000000E+00
 -1.7120000000E+01   0.0000000000E+00   0.0000000000E+00   0.0000000000E+00
 -1.7110000000E+01   0.0000000000E+00   0.0000000000E+00   0.0000000000E+00
 -1.7100000000E+01   0.0000000000E+00   0.0000000000E+00   0.0000000000E+00
 -1.7090000000E+01   0.0000000000E+00   0.0000000000E+00   0.0000000000E+00
 -1.7080000000E+01   0.0000000000E+00   0.0000000000E+00   0.0000000000E+00
 -1.7070000000E+01   0.0000000000E+00   0.0000000000E+00   0.0000000000E+00
 -1.7060000000E+01   0.0000000000E+00   0.0000000000E+00   0.0000000000E+00
 -1.7050000000E+01   0.0000000000E+00   0.0000000000E+00   0.0000000000E+00
 -1.7040000000E+01   0.0000000000E+00   0.0000000000E+00   0.0000000000E+00
 -1.7030000000E+01   0.0000000000E+00   0.0000000000E+00   0.0000000000E+00
 -1.7020000000E+01   0.0000000000E+00   0.0000000000E+00   0.0000000000E+00
 -1.7010000000E+01   0.0000000000E+00   0.0000000000E+00   0.0000000000E+00
 -1.7000000000E+01   0.0000000000E+00   0.0000000000E+00   0.0000000000E+00
 -1.6990000000E+01   0.0000000000E+00   0.0000000000E+00   0.0000000000E+00
 -1.6980000000E+01   0.0000000000E+00   0.0000000000E+00   0.0000000000E+00
 -1.6970000000E+01   0.0000000000E+00   0.0000000000E+00   0.0000000000E+00
 -1.6960000000E+01   0.0000000000E+00   0.0000000000E+00   0.0000000000E+00
 -1.6950000000E+01   0.0000000000E+00   0.0000000000E+00   0.0000000000E+00
 -1.6940000000E+01   0.0000000000E+00   0.0000000000E+00   0.0000000000E+00
 -1.6930000000E+01   0.0000000000E+00   0.0000000000E+00   0.0000000000E+00
 -1.6920000000E+01   0.0000000000E+00   0.0000000000E+00   0.0000000000E+00
 -1.6910000000E+01   0.0000000000E+00   0.0000000000E+00   0.0000000000E+00
 -1.6900000000E+01   0.0000000000E+00   0.0000000000E+00   0.0000000000E+00
 -1.6890000000E+01   0.0000000000E+00   0.0000000000E+00   0.0000000000E+00
 -1.6880000000E+01   0.0000000000E+00   0.0000000000E+00   0.0000000000E+00
 -1.6870000000E+01   0.0000000000E+00   0.0000000000E+00   0.0000000000E+00
 -1.6860000000E+01   0.0000000000E+00   0.0000000000E+00   0.0000000000E+00
 -1.6850000000E+01   0.0000000000E+00   0.0000000000E+00   0.0000000000E+00
 -1.6840000000E+01   0.0000000000E+00   0.0000000000E+00   0.0000000000E+00
 -1.6830000000E+01   0.0000000000E+00   0.0000000000E+00   0.0000000000E+00
 -1.6820000000E+01   0.0000000000E+00   0.0000000000E+00   0.0000000000E+00
 -1.6810000000E+01   0.0000000000E+00   0.0000000000E+00   0.0000000000E+00
 -1.6800000000E+01   0.0000000000E+00   0.0000000000E+00   0.0000000000E+00
 -1.6790000000E+01   0.0000000000E+00   0.0000000000E+00   0.0000000000E+00
 -1.6780000000E+01   0.0000000000E+00   0.0000000000E+00   0.0000000000E+00
 -1.6770000000E+01   0.0000000000E+00   0.0000000000E+00   0.0000000000E+00
 -1.6760000000E+01   0.0000000000E+00   0.0000000000E+00   0.0000000000E+00
 -1.6750000000E+01   0.0000000000E+00   0.0000000000E+00   0.0000000000E+00
 -1.6740000000E+01   0.0000000000E+00   0.0000000000E+00   0.0000000000E+00
 -1.6730000000E+01   0.0000000000E+00   0.0000000000E+00   0.0000000000E+00
 -1.6720000000E+01   0.0000000000E+00   0.0000000000E+00   0.0000000000E+00
 -1.6710000000E+01   0.0000000000E+00   0.0000000000E+00   0.0000000000E+00
 -1.6700000000E+01   0.0000000000E+00   0.0000000000E+00   0.0000000000E+00
 -1.6690000000E+01   0.0000000000E+00   0.0000000000E+00   0.0000000000E+00
 -1.6680000000E+01   0.0000000000E+00   0.0000000000E+00   0.0000000000E+00
 -1.6670000000E+01   0.0000000000E+00   0.0000000000E+00   0.0000000000E+00
 -1.6660000000E+01   0.0000000000E+00   0.0000000000E+00   0.0000000000E+00
 -1.6650000000E+01   0.0000000000E+00   0.0000000000E+00   0.0000000000E+00
 -1.6640000000E+01   0.0000000000E+00   0.0000000000E+00   0.0000000000E+00
 -1.6630000000E+01   0.0000000000E+00   0.0000000000E+00   0.0000000000E+00
 -1.6620000000E+01   0.0000000000E+00   0.0000000000E+00   0.0000000000E+00
 -1.6610000000E+01   0.0000000000E+00   0.0000000000E+00   0.0000000000E+00
 -1.6600000000E+01   0.0000000000E+00   0.0000000000E+00   0.0000000000E+00
 -1.6590000000E+01   0.0000000000E+00   0.0000000000E+00   0.0000000000E+00
 -1.6580000000E+01   0.0000000000E+00   0.0000000000E+00   0.0000000000E+00
 -1.6570000000E+01   0.0000000000E+00   0.0000000000E+00   0.0000000000E+00
 -1.6560000000E+01   0.0000000000E+00   0.0000000000E+00   0.0000000000E+00
 -1.6550000000E+01   0.0000000000E+00   0.0000000000E+00   0.0000000000E+00
 -1.6540000000E+01   0.0000000000E+00   0.0000000000E+00   0.0000000000E+00
 -1.6530000000E+01   0.0000000000E+00   0.0000000000E+00   0.0000000000E+00
 -1.6520000000E+01   0.0000000000E+00   0.0000000000E+00   0.0000000000E+00
 -1.6510000000E+01   0.0000000000E+00   0.0000000000E+00   0.0000000000E+00
 -1.6500000000E+01   0.0000000000E+00   0.0000000000E+00   0.0000000000E+00
 -1.6490000000E+01   0.0000000000E+00   0.0000000000E+00   0.0000000000E+00
 -1.6480000000E+01   0.0000000000E+00   0.0000000000E+00   0.0000000000E+00
 -1.6470000000E+01   0.0000000000E+00   0.0000000000E+00   0.0000000000E+00
 -1.6460000000E+01   0.0000000000E+00   0.0000000000E+00   0.0000000000E+00
 -1.6450000000E+01   0.0000000000E+00   0.0000000000E+00   0.0000000000E+00
 -1.6440000000E+01   0.0000000000E+00   0.0000000000E+00   0.0000000000E+00
 -1.6430000000E+01   0.0000000000E+00   0.0000000000E+00   0.0000000000E+00
 -1.6420000000E+01   0.0000000000E+00   0.0000000000E+00   0.0000000000E+00
 -1.6410000000E+01   0.0000000000E+00   0.0000000000E+00   0.0000000000E+00
 -1.6400000000E+01   0.0000000000E+00   0.0000000000E+00   0.0000000000E+00
 -1.6390000000E+01   0.0000000000E+00   0.0000000000E+00   0.0000000000E+00
 -1.6380000000E+01   0.0000000000E+00   0.0000000000E+00   0.0000000000E+00
 -1.6370000000E+01   0.0000000000E+00   0.0000000000E+00   0.0000000000E+00
 -1.6360000000E+01   0.0000000000E+00   0.0000000000E+00   0.0000000000E+00
 -1.6350000000E+01   0.0000000000E+00   0.0000000000E+00   0.0000000000E+00
 -1.6340000000E+01   0.0000000000E+00   0.0000000000E+00   0.0000000000E+00
 -1.6330000000E+01   0.0000000000E+00   0.0000000000E+00   0.0000000000E+00
 -1.6320000000E+01   0.0000000000E+00   0.0000000000E+00   0.0000000000E+00
 -1.6310000000E+01   0.0000000000E+00   0.0000000000E+00   0.0000000000E+00
 -1.6300000000E+01   0.0000000000E+00   0.0000000000E+00   0.0000000000E+00
 -1.6290000000E+01   0.0000000000E+00   0.0000000000E+00   0.0000000000E+00
 -1.6280000000E+01   0.0000000000E+00   0.0000000000E+00   0.0000000000E+00
 -1.6270000000E+01   0.0000000000E+00   0.0000000000E+00   0.0000000000E+00
 -1.6260000000E+01   0.0000000000E+00   0.0000000000E+00   0.0000000000E+00
 -1.6250000000E+01   0.0000000000E+00   0.0000000000E+00   0.0000000000E+00
 -1.6240000000E+01   0.0000000000E+00   0.0000000000E+00   0.0000000000E+00
 -1.6230000000E+01   0.0000000000E+00   0.0000000000E+00   0.0000000000E+00
 -1.6220000000E+01   0.0000000000E+00   0.0000000000E+00   0.0000000000E+00
 -1.6210000000E+01   0.0000000000E+00   0.0000000000E+00   0.0000000000E+00
 -1.6200000000E+01   0.0000000000E+00   0.0000000000E+00   0.0000000000E+00
 -1.6190000000E+01   0.0000000000E+00   0.0000000000E+00   0.0000000000E+00
 -1.6180000000E+01   0.0000000000E+00   0.0000000000E+00   0.0000000000E+00
 -1.6170000000E+01   0.0000000000E+00   0.0000000000E+00   0.0000000000E+00
 -1.6160000000E+01   0.0000000000E+00   0.0000000000E+00   0.0000000000E+00
 -1.6150000000E+01   0.0000000000E+00   0.0000000000E+00   0.0000000000E+00
 -1.6140000000E+01   0.0000000000E+00   0.0000000000E+00   0.0000000000E+00
 -1.6130000000E+01   0.0000000000E+00   0.0000000000E+00   0.0000000000E+00
 -1.6120000000E+01   0.0000000000E+00   0.0000000000E+00   0.0000000000E+00
 -1.6110000000E+01   0.0000000000E+00   0.0000000000E+00   0.0000000000E+00
 -1.6100000000E+01   0.0000000000E+00   0.0000000000E+00   0.0000000000E+00
 -1.6090000000E+01   0.0000000000E+00   0.0000000000E+00   0.0000000000E+00
 -1.6080000000E+01   0.0000000000E+00   0.0000000000E+00   0.0000000000E+00
 -1.6070000000E+01   0.0000000000E+00   0.0000000000E+00   0.0000000000E+00
 -1.6060000000E+01   0.0000000000E+00   0.0000000000E+00   0.0000000000E+00
 -1.6050000000E+01   0.0000000000E+00   0.0000000000E+00   0.0000000000E+00
 -1.6040000000E+01   0.0000000000E+00   0.0000000000E+00   0.0000000000E+00
 -1.6030000000E+01   0.0000000000E+00   0.0000000000E+00   0.0000000000E+00
 -1.6020000000E+01   0.0000000000E+00   0.0000000000E+00   0.0000000000E+00
 -1.6010000000E+01   0.0000000000E+00   0.0000000000E+00   0.0000000000E+00
 -1.6000000000E+01   0.0000000000E+00   0.0000000000E+00   0.0000000000E+00
 -1.5990000000E+01   0.0000000000E+00   0.0000000000E+00   0.0000000000E+00
 -1.5980000000E+01   0.0000000000E+00   0.0000000000E+00   0.0000000000E+00
 -1.5970000000E+01   0.0000000000E+00   0.0000000000E+00   0.0000000000E+00
 -1.5960000000E+01   0.0000000000E+00   0.0000000000E+00   0.0000000000E+00
 -1.5950000000E+01   0.0000000000E+00   0.0000000000E+00   0.0000000000E+00
 -1.5940000000E+01   0.0000000000E+00   0.0000000000E+00   0.0000000000E+00
 -1.5930000000E+01   0.0000000000E+00   0.0000000000E+00   0.0000000000E+00
 -1.5920000000E+01   0.0000000000E+00   0.0000000000E+00   0.0000000000E+00
 -1.5910000000E+01   0.0000000000E+00   0.0000000000E+00   0.0000000000E+00
 -1.5900000000E+01   0.0000000000E+00   0.0000000000E+00   0.0000000000E+00
 -1.5890000000E+01   0.0000000000E+00   0.0000000000E+00   0.0000000000E+00
 -1.5880000000E+01   0.0000000000E+00   0.0000000000E+00   0.0000000000E+00
 -1.5870000000E+01   0.0000000000E+00   0.0000000000E+00   0.0000000000E+00
 -1.5860000000E+01   0.0000000000E+00   0.0000000000E+00   0.0000000000E+00
 -1.5850000000E+01   0.0000000000E+00   0.0000000000E+00   0.0000000000E+00
 -1.5840000000E+01   0.0000000000E+00   0.0000000000E+00   0.0000000000E+00
 -1.5830000000E+01   0.0000000000E+00   0.0000000000E+00   0.0000000000E+00
 -1.5820000000E+01   0.0000000000E+00   0.0000000000E+00   0.0000000000E+00
 -1.5810000000E+01   4.4570178472E-07   4.4570178472E-07   0.0000000000E+00
 -1.5800000000E+01   9.0474223892E-07   9.0474223892E-07   0.0000000000E+00
 -1.5790000000E+01   1.8001946632E-06   1.8001946632E-06   0.0000000000E+00
 -1.5780000000E+01   3.5109786114E-06   3.5109786114E-06   0.0000000000E+00
 -1.5770000000E+01   6.7119854760E-06   6.7119854760E-06   0.0000000000E+00
 -1.5760000000E+01   1.2577315136E-05   1.2577315136E-05   0.0000000000E+00
 -1.5750000000E+01   2.3101436582E-05   2.3101436582E-05   0.0000000000E+00
 -1.5740000000E+01   4.1591457818E-05   4.1591457818E-05   0.0000000000E+00
 -1.5730000000E+01   7.3397861863E-05   7.3397861863E-05   0.0000000000E+00
 -1.5720000000E+01   1.2696288571E-04   1.2696288571E-04   0.0000000000E+00
 -1.5710000000E+01   2.1527037695E-04   2.1527037695E-04   0.0000000000E+00
 -1.5700000000E+01   3.5777160404E-04   3.5777160404E-04   0.0000000000E+00
 -1.5690000000E+01   5.8282956674E-04   5.8282956674E-04   0.0000000000E+00
 -1.5680000000E+01   9.3066073838E-04   9.3066073838E-04   0.0000000000E+00
 -1.5670000000E+01   1.4566503606E-03   1.4566503606E-03   0.0000000000E+00
 -1.5660000000E+01   2.2347727081E-03   2.2347727081E-03   0.0000000000E+00
 -1.5650000000E+01   3.3606672020E-03   3.3606672020E-03   0.0000000000E+00
 -1.5640000000E+01   4.9537235508E-03   4.9537235508E-03   0.0000000000E+00
 -1.5630000000E+01   7.1573480356E-03   7.1573480356E-03   0.0000000000E+00
 -1.5620000000E+01   1.0136467111E-02   1.0136467111E-02   0.0000000000E+00
 -1.5610000000E+01   1.4072118406E-02   1.4071331861E-02   7.8654511632E-07
 -1.5600000000E+01   1.9148446465E-02   1.9146875179E-02   1.5712866488E-06
 -1.5590000000E+01   2.5540361435E-02   2.5537284621E-02   3.0768144900E-06
 -1.5580000000E+01   3.3392001576E-02   3.3386096013E-02   5.9055631018E-06
 -1.5570000000E+01   4.2794054879E-02   4.2782944333E-02   1.1110546643E-05
 -1.5560000000E+01   5.3759517691E-02   5.3739028555E-02   2.0489136222E-05
 -1.5550000000E+01   6.6201235838E-02   6.6164199676E-02   3.7036162688E-05
 -1.5540000000E+01   7.9914794622E-02   7.9849173685E-02   6.5620936912E-05
 -1.5530000000E+01   9.4570476271E-02   9.4456510882E-02   1.1396538994E-04
 -1.5520000000E+01   1.0971754962E-01   1.0952354251E-01   1.9400710949E-04
 -1.5510000000E+01   1.2480303624E-01   1.2447931111E-01   3.2372513445E-04
 -1.5500000000E+01   1.3920537558E-01   1.3867589589E-01   5.2947968889E-04
 -1.5490000000E+01   1.5228129157E-01   1.5143243112E-01   8.4886045196E-04
 -1.5480000000E+01   1.6342196426E-01   1.6208802085E-01   1.3339434113E-03
 -1.5470000000E+01   1.7211271493E-01   1.7005799505E-01   2.0547198781E-03
 -1.5460000000E+01   1.7798919504E-01   1.7488690822E-01   3.1022868289E-03
 -1.5450000000E+01   1.8088280609E-01   1.7629161482E-01   4.5911912697E-03
 -1.5440000000E+01   1.8084889129E-01   1.7418875781E-01   6.6601334792E-03
 -1.5430000000E+01   1.7817305903E-01   1.6870295847E-01   9.4701005632E-03
 -1.5420000000E+01   1.7335356803E-01   1.6015458839E-01   1.3198979636E-02
 -1.5410000000E+01   1.6706064058E-01   1.4902879261E-01   1.8031847972E-02
 -1.5400000000E+01   1.6007643120E-01   1.3592992917E-01   2.4146502033E-02
 -1.5390000000E+01   1.5322175729E-01   1.2152737259E-01   3.1694384696E-02
 -1.5380000000E+01   1.4727728838E-01   1.0649941863E-01   4.0777869754E-02
 -1.5370000000E+01   1.4290752855E-01   9.1481752507E-02   5.1425776047E-02
 -1.5360000000E+01   1.4059559463E-01   7.7025730336E-02   6.3569864298E-02
 -1.5350000000E+01   1.4059750445E-01   6.3571774113E-02   7.7025730338E-02
 -1.5340000000E+01   1.4291136677E-01   5.1429614259E-02   9.1481752509E-02
 -1.5330000000E+01   1.4728484941E-01   4.0785430780E-02   1.0649941863E-01
 -1.5320000000E+01   1.5323635708E-01   3.1708984484E-02   1.2152737260E-01
 -1.5310000000E+01   1.6010406410E-01   2.4174134933E-02   1.3592992917E-01
 -1.5300000000E+01   1.6711190552E-01   1.8083112912E-02   1.4902879261E-01
 -1.5290000000E+01   1.7344679221E-01   1.3292203812E-02   1.6015458840E-01
 -1.5280000000E+01   1.7833922832E-01   9.6362698537E-03   1.6870295847E-01
 -1.5270000000E+01   1.8113921807E-01   6.9504602524E-03   1.7418875781E-01
 -1.5260000000E+01   1.8138001341E-01   5.0883985954E-03   1.7629161482E-01
 -1.5250000000E+01   1.7882384055E-01   3.9369323372E-03   1.7488690822E-01
 -1.5240000000E+01   1.7348606329E-01   3.4280682360E-03   1.7005799505E-01
 -1.5230000000E+01   1.6563696296E-01   3.5489421076E-03   1.6208802085E-01
 -1.5220000000E+01   1.5578300295E-01   4.3505718328E-03   1.5143243112E-01
 -1.5210000000E+01   1.4463164471E-01   5.9557488290E-03   1.3867589589E-01
 -1.5200000000E+01   1.3304510862E-01   8.5657975162E-03   1.2447931111E-01
 -1.5190000000E+01   1.2198870988E-01   1.2465167369E-02   1.0952354251E-01
 -1.5180000000E+01   1.1247855282E-01   1.8022041939E-02   9.4456510879E-02
 -1.5170000000E+01   1.0553168245E-01   2.5682508769E-02   7.9849173683E-02
 -1.5160000000E+01   1.0212125480E-01   3.5955512164E-02   6.6165742641E-02
 -1.5150000000E+01   1.0312813805E-01   4.9385989891E-02   5.3742148161E-02
 -1.5140000000E+01   1.0930355354E-01   6.6514426803E-02   4.2789126735E-02
 -1.5130000000E+01   1.2122072237E-01   8.7822616749E-02   3.3398105621E-02
 -1.5120000000E+01   1.3922780693E-01   1.1366765503E-01   2.5560151900E-02
 -1.5110000000E+01   1.6339842074E-01   1.4420886656E-01   1.9189554182E-02
 -1.5100000000E+01   1.9348452377E-01   1.7933511400E-01   1.4149409764E-02
 -1.5090000000E+01   2.2887827726E-01   2.1860180109E-01   1.0276476164E-02
 -1.5080000000E+01   2.6859440765E-01   2.6119096721E-01   7.4034404399E-03
 -1.5070000000E+01   3.1127574354E-01   3.0589803116E-01   5.3777123735E-03
 -1.5060000000E+01   3.5524014714E-01   3.5116346065E-01   4.0766864818E-03
 -1.5050000000E+01   3.9856463667E-01   3.9514461623E-01   3.4200204467E-03
 -1.5040000000E+01   4.3920958246E-01   4.3582980643E-01   3.3797760295E-03
 -1.5030000000E+01   4.7517472304E-01   4.7118547906E-01   3.9892439773E-03
 -1.5020000000E+01   5.0467326614E-01   4.9932231792E-01   5.3509482208E-03
 -1.5010000000E+01   5.2630543749E-01   5.1866168689E-01   7.6437505939E-03
 -1.5000000000E+01   5.3921036533E-01   5.2808212687E-01   1.1128238465E-02
 -1.4990000000E+01   5.4317580531E-01   5.2702701807E-01   1.6148787240E-02
 -1.4980000000E+01   5.3868902619E-01   5.1555903404E-01   2.3129992154E-02
 -1.4970000000E+01   5.2691870861E-01   4.9435397784E-01   3.2564730774E-02
 -1.4960000000E+01   5.0962597622E-01   4.6463484379E-01   4.4991132430E-02
 -1.4950000000E+01   4.8901318995E-01   4.2805683171E-01   6.0956358234E-02
 -1.4940000000E+01   4.6751638240E-01   3.8654994492E-01   8.0966437483E-02
 -1.4930000000E+01   4.4758140595E-01   3.4215795364E-01   1.0542345231E-01
 -1.4920000000E+01   4.3142500505E-01   2.9687106041E-01   1.3455394464E-01
 -1.4910000000E+01   4.2082088776E-01   2.5248569450E-01   1.6833519326E-01
 -1.4900000000E+01   4.1692749175E-01   2.1049901888E-01   2.0642847287E-01
 -1.4890000000E+01   4.2017591405E-01   1.7204615907E-01   2.4812975499E-01
 -1.4880000000E+01   4.3023102579E-01   1.3788099646E-01   2.9235002933E-01
 -1.4870000000E+01   4.4602631177E-01   1.0839590877E-01   3.3763040299E-01
 -1.4860000000E+01   4.6587493503E-01   8.3671960308E-02   3.8220297472E-01
 -1.4850000000E+01   4.8764167065E-01   6.3549076030E-02   4.2409259462E-01
 -1.4840000000E+01   5.0896095608E-01   4.7705596521E-02   4.6125535956E-01
 -1.4830000000E+01   5.2747874038E-01   3.5737907664E-02   4.9174083271E-01
 -1.4820000000E+01   5.4109348330E-01   2.7232989941E-02   5.1386049336E-01
 -1.4810000000E+01   5.4817145671E-01   2.1829128611E-02   5.2634232810E-01
 -1.4800000000E+01   5.4771407278E-01   1.9262159013E-02   5.2845191377E-01
 -1.4790000000E+01   5.3946013316E-01   1.9396167487E-02   5.2006396567E-01
 -1.4780000000E+01   5.2391308158E-01   2.2238425105E-02   5.0167465648E-01
 -1.4770000000E+01   5.0229162376E-01   2.7938602575E-02   4.7435302118E-01
 -1.4760000000E+01   4.7641166585E-01   3.6772261089E-02   4.3963940477E-01
 -1.4750000000E+01   4.4850665681E-01   4.9108578022E-02   3.9939807879E-01
 -1.4740000000E+01   4.2101966350E-01   6.5362586477E-02   3.5565707703E-01
 -1.4730000000E+01   3.9637161017E-01   8.5933131716E-02   3.1043847845E-01
 -1.4720000000E+01   3.7673897847E-01   1.1112936078E-01   2.6560961769E-01
 -1.4710000000E+01   3.6385658648E-01   1.4109073897E-01   2.2276584751E-01
 -1.4700000000E+01   3.5886252435E-01   1.7570798404E-01   1.8315454031E-01
 -1.4690000000E+01   3.6219741496E-01   2.1455440269E-01   1.4764301227E-01
 -1.4680000000E+01   3.7356553852E-01   2.5683829159E-01   1.1672724693E-01
 -1.4670000000E+01   3.9196064701E-01   3.0138675870E-01   9.0573888311E-02
 -1.4660000000E+01   4.1575458366E-01   3.4666915813E-01   6.9085425532E-02
 -1.4650000000E+01   4.4284211147E-01   3.9086427188E-01   5.1977839582E-02
 -1.4640000000E+01   4.7083154530E-01   4.3197063176E-01   3.8860913540E-02
 -1.4630000000E+01   4.9726055061E-01   4.6794717209E-01   2.9313378519E-02
 -1.4620000000E+01   5.1983237325E-01   4.9688491021E-01   2.2947463043E-02
 -1.4610000000E+01   5.3662572455E-01   5.1716604337E-01   1.9459681179E-02
 -1.4600000000E+01   5.4628533550E-01   5.2761888915E-01   1.8666446351E-02
 -1.4590000000E+01   5.4815298453E-01   5.2762882505E-01   2.0524159484E-02
 -1.4580000000E+01   5.4233283164E-01   5.1719899857E-01   2.5133833067E-02
 -1.4570000000E+01   5.2968132448E-01   4.9695103063E-01   3.2730293843E-02
 -1.4560000000E+01   5.1172167216E-01   4.6806579081E-01   4.3655881347E-02
 -1.4550000000E+01   4.9049119257E-01   4.3217251392E-01   5.8318678658E-02
 -1.4540000000E+01   4.6833725208E-01   3.9120128533E-01   7.7135966750E-02
 -1.4530000000E+01   4.4768483259E-01   3.4721989453E-01   1.0046493806E-01
 -1.4520000000E+01   4.3079112661E-01   3.0226643029E-01   1.2852469632E-01
 -1.4510000000E+01   4.1953103438E-01   2.5821508848E-01   1.6131594590E-01
 -1.4500000000E+01   4.1521285041E-01   2.1666577828E-01   1.9854707213E-01
 -1.4490000000E+01   4.1845724287E-01   1.7888030086E-01   2.3957694201E-01
 -1.4480000000E+01   4.2914530813E-01   1.4576019986E-01   2.8338510827E-01
 -1.4470000000E+01   4.4644083485E-01   1.1786212477E-01   3.2857871009E-01
 -1.4460000000E+01   4.6888355398E-01   9.5441509490E-02   3.7344204449E-01
 -1.4450000000E+01   4.9454356521E-01   7.8513234787E-02   4.1603033042E-01
 -1.4440000000E+01   5.2121636716E-01   6.6917879575E-02   4.5429848758E-01
 -1.4430000000E+01   5.4665027272E-01   6.0383852923E-02   4.8626641980E-01
 -1.4420000000E+01   5.6875713039E-01   5.8578584444E-02   5.1017854595E-01
 -1.4410000000E+01   5.8581475384E-01   6.1145379747E-02   5.2466937409E-01
 -1.4400000000E+01   5.9661679965E-01   6.7725876518E-02   5.2889092314E-01
 -1.4390000000E+01   6.0056629433E-01   7.7970723603E-02   5.2259557073E-01
 -1.4380000000E+01   5.9770396833E-01   9.1542766856E-02   5.0616120147E-01
 -1.4370000000E+01   5.8867283947E-01   1.0811746847E-01   4.8055537100E-01
 -1.4360000000E+01   5.7462809650E-01   1.2738452247E-01   4.4724357403E-01
 -1.4350000000E+01   5.5710706859E-01   1.4905287271E-01   4.0805419588E-01
 -1.4340000000E+01   5.3787704256E-01   1.7285898906E-01   3.6501805350E-01
 -1.4330000000E+01   5.1878096991E-01   1.9857584983E-01   3.2020512008E-01
 -1.4320000000E+01   5.0158417023E-01   2.2601821151E-01   2.7556595873E-01
 -1.4310000000E+01   4.8785819296E-01   2.5503896990E-01   2.3281922306E-01
 -1.4300000000E+01   4.7887667357E-01   2.8551210656E-01   1.9336456701E-01
 -1.4290000000E+01   4.7554493958E-01   3.1729995403E-01   1.5824498555E-01
 -1.4280000000E+01   4.7835420358E-01   3.5020602297E-01   1.2814818062E-01
 -1.4270000000E+01   4.8735912414E-01   3.8391876845E-01   1.0344035569E-01
 -1.4260000000E+01   5.0218193571E-01   4.1796023815E-01   8.4221697560E-02
 -1.4250000000E+01   5.2201969485E-01   4.5162777702E-01   7.0391917831E-02
 -1.4240000000E+01   5.4570781581E-01   4.8399256328E-01   6.1715252540E-02
 -1.4230000000E+01   5.7177993549E-01   5.1390314800E-01   5.7876787489E-02
 -1.4220000000E+01   5.9857175621E-01   5.4004649132E-01   5.8525264886E-02
 -1.4210000000E+01   6.2433593352E-01   5.6103495399E-01   6.3300979531E-02
 -1.4200000000E+01   6.4738816970E-01   5.7553776695E-01   7.1850402748E-02
 -1.4190000000E+01   6.6624806099E-01   5.8241673319E-01   8.3831327806E-02
 -1.4180000000E+01   6.7978453090E-01   5.8087119684E-01   9.8913334057E-02
 -1.4170000000E+01   6.8733233130E-01   5.7055419657E-01   1.1677813473E-01
 -1.4160000000E+01   6.8877775285E-01   5.5165473157E-01   1.3712302128E-01
 -1.4150000000E+01   6.8459932828E-01   5.2493087505E-01   1.5966845323E-01
 -1.4140000000E+01   6.7585915205E-01   4.9169081478E-01   1.8416833727E-01
 -1.4130000000E+01   6.6414537646E-01   4.5372610635E-01   2.1041927011E-01
 -1.4120000000E+01   6.5147161797E-01   4.1320804135E-01   2.3826357663E-01
 -1.4110000000E+01   6.4014295659E-01   3.7256211173E-01   2.6758084487E-01
 -1.4100000000E+01   6.3260048705E-01   3.3433638812E-01   2.9826409893E-01
 -1.4090000000E+01   6.3125694419E-01   3.0107726215E-01   3.3017968203E-01
 -1.4080000000E+01   6.3833507987E-01   2.7522118800E-01   3.6311389187E-01
 -1.4070000000E+01   6.5572179794E-01   2.5900508283E-01   3.9671671511E-01
 -1.4060000000E+01   6.8483046158E-01   2.5439242096E-01   4.3043804062E-01
 -1.4050000000E+01   7.2651053394E-01   2.6300817658E-01   4.6350235737E-01
 -1.4040000000E+01   7.8096771103E-01   2.8607459788E-01   4.9489311314E-01
 -1.4030000000E+01   8.4773135276E-01   3.2434164891E-01   5.2338970384E-01
 -1.4020000000E+01   9.2564014976E-01   3.7801043437E-01   5.4762971539E-01
 -1.4010000000E+01   1.0128785449E+00   4.4665398057E-01   5.6622456433E-01
 -1.4000000000E+01   1.1070394677E+00   5.2914590865E-01   5.7789355904E-01
 -1.3990000000E+01   1.2052157245E+00   6.2361221073E-01   5.8160351374E-01
 -1.3980000000E+01   1.3041334246E+00   7.2742316535E-01   5.7671025926E-01
 -1.3970000000E+01   1.4003026010E+00   8.3724059242E-01   5.6306200859E-01
 -1.3960000000E+01   1.4901942525E+00   9.4913009990E-01   5.4106415261E-01
 -1.3950000000E+01   1.5704314686E+00   1.0587394854E+00   5.1169198327E-01
 -1.3940000000E+01   1.6379862723E+00   1.1615344867E+00   4.7645178554E-01
 -1.3930000000E+01   1.6903710133E+00   1.2530734938E+00   4.3729751949E-01
 -1.3920000000E+01   1.7258113737E+00   1.3292953047E+00   3.9651606905E-01
 -1.3910000000E+01   1.7433887733E+00   1.3867919051E+00   3.5659686818E-01
 -1.3900000000E+01   1.7431354168E+00   1.4230342001E+00   3.2010121668E-01
 -1.3890000000E+01   1.7260757481E+00   1.4365326362E+00   2.8954311185E-01
 -1.3880000000E+01   1.6942037957E+00   1.4269158413E+00   2.6728795439E-01
 -1.3870000000E+01   1.6503813896E+00   1.3949119314E+00   2.5546945823E-01
 -1.3860000000E+01   1.5981851826E+00   1.3422651700E+00   2.5592001265E-01
 -1.3850000000E+01   1.5416760281E+00   1.2715691632E+00   2.7010686492E-01
 -1.3840000000E+01   1.4851251700E+00   1.1860586384E+00   2.9906653162E-01
 -1.3830000000E+01   1.4327070307E+00   1.0893741963E+00   3.4333283442E-01
 -1.3820000000E+01   1.3881826580E+00   9.8532345170E-01   4.0285920633E-01
 -1.3810000000E+01   1.3545993614E+00   8.7765718570E-01   4.7694217573E-01
 -1.3800000000E+01   1.3340400921E+00   7.6988145137E-01   5.6415864072E-01
 -1.3790000000E+01   1.3274337608E+00   6.6510060195E-01   6.6233315888E-01
 -1.3780000000E+01   1.3344715933E+00   5.6591976458E-01   7.6855182870E-01
 -1.3770000000E+01   1.3536245936E+00   4.7438867392E-01   8.7923591967E-01
 -1.3760000000E+01   1.3822747512E+00   3.9199323542E-01   9.9028151581E-01
 -1.3750000000E+01   1.4169496051E+00   3.1968744235E-01   1.0972621628E+00
 -1.3740000000E+01   1.4536391365E+00   2.5795760649E-01   1.1956815300E+00
 -1.3730000000E+01   1.4881631134E+00   2.0690906573E-01   1.2812540477E+00
 -1.3720000000E+01   1.5165522680E+00   1.6636442264E-01   1.3501878454E+00
 -1.3710000000E+01   1.5353976257E+00   1.3596202761E-01   1.3994355981E+00
 -1.3700000000E+01   1.5421384298E+00   1.1524394258E-01   1.4268944872E+00
 -1.3690000000E+01   1.5352545444E+00   1.0372406731E-01   1.4315304770E+00
 -1.3680000000E+01   1.5143423811E+00   1.0092947641E-01   1.4134129047E+00
 -1.3670000000E+01   1.4800863601E+00   1.0641311438E-01   1.3736732457E+00
 -1.3660000000E+01   1.4341087941E+00   1.1972836209E-01   1.3143804321E+00
 -1.3650000000E+01   1.3787514596E+00   1.4039041976E-01   1.2383610398E+00
 -1.3640000000E+01   1.3167891995E+00   1.6780804906E-01   1.1489811504E+00
 -1.3630000000E+01   1.2511298020E+00   2.0121713312E-01   1.0499126689E+00
 -1.3620000000E+01   1.1845117605E+00   2.3960710003E-01   9.4490466052E-01
 -1.3610000000E+01   1.1192673717E+00   2.8169122706E-01   8.3757614464E-01
 -1.3600000000E+01   1.0571379740E+00   3.2589080309E-01   7.3124717088E-01
 -1.3590000000E+01   9.9917538990E-01   3.7037085586E-01   6.2880453404E-01
 -1.3580000000E+01   9.4574315733E-01   4.1312038256E-01   5.3262277477E-01
 -1.3570000000E+01   8.9660127126E-01   4.5207552260E-01   4.4452574866E-01
 -1.3560000000E+01   8.5106772172E-01   4.8527572275E-01   3.6579199896E-01
 -1.3550000000E+01   8.0823373397E-01   5.1103713212E-01   2.9719660185E-01
 -1.3540000000E+01   7.6720383371E-01   5.2812239552E-01   2.3908143818E-01
 -1.3530000000E+01   7.2733907527E-01   5.3589475447E-01   1.9144432080E-01
 -1.3520000000E+01   6.8845136929E-01   5.3441489432E-01   1.5403647497E-01
 -1.3510000000E+01   6.5095876720E-01   5.2450112242E-01   1.2645764478E-01
 -1.3500000000E+01   6.1595568350E-01   5.0771698826E-01   1.0823869525E-01
 -1.3490000000E+01   5.8520303207E-01   4.8629995782E-01   9.8903074256E-02
 -1.3480000000E+01   5.6103507677E-01   4.6303419021E-01   9.8000886559E-02
 -1.3470000000E+01   5.4620105583E-01   4.4108663279E-01   1.0511442304E-01
 -1.3460000000E+01   5.4362616368E-01   4.2379985464E-01   1.1982630904E-01
 -1.3450000000E+01   5.5616213435E-01   4.1448635429E-01   1.4167578006E-01
 -1.3440000000E+01   5.8629819322E-01   4.1621113535E-01   1.7008705787E-01
 -1.3430000000E+01   6.3588605510E-01   4.3158451340E-01   2.0430154170E-01
 -1.3420000000E+01   7.0587574548E-01   4.6257084070E-01   2.4330490477E-01
 -1.3410000000E+01   7.9612013441E-01   5.1032020708E-01   2.8579992733E-01
 -1.3400000000E+01   9.0522527077E-01   5.7503064366E-01   3.3019462711E-01
 -1.3390000000E+01   1.0304927731E+00   6.5584999312E-01   3.7464278001E-01
 -1.3380000000E+01   1.1679575897E+00   7.5082856817E-01   4.1712902157E-01
 -1.3370000000E+01   1.3125309870E+00   8.5693480310E-01   4.5559618390E-01
 -1.3360000000E+01   1.4582493104E+00   9.7014509903E-01   4.8810421140E-01
 -1.3350000000E+01   1.5986174828E+00   1.0856151055E+00   5.1300237731E-01
 -1.3340000000E+01   1.7270406558E+00   1.1979325538E+00   5.2910810202E-01
 -1.3330000000E+01   1.8372782264E+00   1.3014420608E+00   5.3583616561E-01
 -1.3320000000E+01   1.9239346782E+00   1.3906214430E+00   5.3331323518E-01
 -1.3310000000E+01   1.9828991128E+00   1.4604789658E+00   5.2242014695E-01
 -1.3300000000E+01   2.0117100430E+00   1.5069337166E+00   5.0477632641E-01
 -1.3290000000E+01   2.0098021582E+00   1.5271387562E+00   4.8266340199E-01
 -1.3280000000E+01   1.9786045945E+00   1.5197099507E+00   4.5889464383E-01
 -1.3270000000E+01   1.9214808468E+00   1.4848324548E+00   4.3664839196E-01
 -1.3260000000E+01   1.8434936580E+00   1.4242306383E+00   4.1926301970E-01
 -1.3250000000E+01   1.7510357647E+00   1.3410037402E+00   4.1003202451E-01
 -1.3240000000E+01   1.6513366485E+00   1.2393460913E+00   4.1199055718E-01
 -1.3230000000E+01   1.5518971008E+00   1.1241846339E+00   4.2771246688E-01
 -1.3220000000E+01   1.4598988398E+00   1.0007754824E+00   4.5912335738E-01
 -1.3210000000E+01   1.3816402317E+00   8.7430407802E-01   5.0733615368E-01
 -1.3200000000E+01   1.3220462457E+00   7.4952994174E-01   5.7251630394E-01
 -1.3190000000E+01   1.2842936455E+00   6.3050807178E-01   6.5378557375E-01
 -1.3180000000E+01   1.2695820438E+00   5.2040650482E-01   7.4917553901E-01
 -1.3170000000E+01   1.2770688709E+00   4.2142575014E-01   8.5564312077E-01
 -1.3160000000E+01   1.3039719804E+00   3.3481237989E-01   9.6915960048E-01
 -1.3150000000E+01   1.3458341860E+00   2.6095355039E-01   1.0848806356E+00
 -1.3140000000E+01   1.3969161058E+00   1.9951845026E-01   1.1973976555E+00
 -1.3130000000E+01   1.4506986282E+00   1.4963735629E-01   1.3010612719E+00
 -1.3120000000E+01   1.5004377800E+00   1.1008138822E-01   1.3903563917E+00
 -1.3110000000E+01   1.5397286781E+00   7.9430142164E-02   1.4602985359E+00
 -1.3100000000E+01   1.5630264600E+00   5.6212888921E-02   1.5068135711E+00
 -1.3090000000E+01   1.5660769613E+00   3.9016476328E-02   1.5270604850E+00
 -1.3080000000E+01   1.5462186510E+00   2.6558595649E-02   1.5196600553E+00
 -1.3070000000E+01   1.5025306172E+00   1.7729289546E-02   1.4848013277E+00
 -1.3060000000E+01   1.4358178800E+00   1.1606247839E-02   1.4242116322E+00
 -1.3050000000E+01   1.3484430038E+00   7.4506232853E-03   1.3409923805E+00
 -1.3040000000E+01   1.2440295267E+00   4.6900820265E-03   1.2393394447E+00
 -1.3030000000E+01   1.1270757890E+00   2.8949625877E-03   1.1241808264E+00
 -1.3020000000E+01   1.0025254859E+00   1.7521389745E-03   1.0007733469E+00
 -1.3010000000E+01   8.7534269692E-01   1.0397917301E-03   8.7430290519E-01
 -1.3000000000E+01   7.5013432611E-01   6.0501512198E-04   7.4952931099E-01
 -1.2990000000E+01   6.3085289818E-01   3.4515859019E-04   6.3050773959E-01
 -1.2980000000E+01   5.2059939462E-01   1.9306115277E-04   5.2040633347E-01
 -1.2970000000E+01   4.2153037914E-01   1.0587334362E-04   4.2142450579E-01
 -1.2960000000E+01   3.3486930269E-01   5.6922797387E-05   3.3481237989E-01
 -1.2950000000E+01   2.6098274997E-01   2.9199578505E-05   2.6095355039E-01
 -1.2940000000E+01   1.9953357232E-01   1.5122055003E-05   1.9951845026E-01
 -1.2930000000E+01   1.4964503272E-01   7.6764275363E-06   1.4963735629E-01
 -1.2920000000E+01   1.1008520785E-01   3.8196327314E-06   1.1008138822E-01
 -1.2910000000E+01   7.9430142164E-02   0.0000000000E+00   7.9430142164E-02
 -1.2900000000E+01   5.6212888921E-02   0.0000000000E+00   5.6212888921E-02
 -1.2890000000E+01   3.9016476328E-02   0.0000000000E+00   3.9016476328E-02
 -1.2880000000E+01   2.6558595649E-02   0.0000000000E+00   2.6558595649E-02
 -1.2870000000E+01   1.7729289546E-02   0.0000000000E+00   1.7729289546E-02
 -1.2860000000E+01   1.1606247839E-02   0.0000000000E+00   1.1606247839E-02
 -1.2850000000E+01   7.4506232853E-03   0.0000000000E+00   7.4506232853E-03
 -1.2840000000E+01   4.6900820265E-03   0.0000000000E+00   4.6900820265E-03
 -1.2830000000E+01   2.8949625877E-03   0.0000000000E+00   2.8949625877E-03
 -1.2820000000E+01   1.7521389745E-03   0.0000000000E+00   1.7521389745E-03
 -1.2810000000E+01   1.0397917301E-03   0.0000000000E+00   1.0397917301E-03
 -1.2800000000E+01   6.0501512198E-04   0.0000000000E+00   6.0501512198E-04
 -1.2790000000E+01   3.4515859019E-04   0.0000000000E+00   3.4515859019E-04
 -1.2780000000E+01   1.9306115277E-04   0.0000000000E+00   1.9306115277E-04
 -1.2770000000E+01   1.0587334362E-04   0.0000000000E+00   1.0587334362E-04
 -1.2760000000E+01   5.6922797387E-05   0.0000000000E+00   5.6922797387E-05
 -1.2750000000E+01   2.9199578504E-05   0.0000000000E+00   2.9199578504E-05
 -1.2740000000E+01   1.5122055003E-05   0.0000000000E+00   1.5122055003E-05
 -1.2730000000E+01   7.6764275363E-06   0.0000000000E+00   7.6764275363E-06
 -1.2720000000E+01   3.8196327314E-06   0.0000000000E+00   3.8196327314E-06
 -1.2710000000E+01   0.0000000000E+00   0.0000000000E+00   0.0000000000E+00
 -1.2700000000E+01   0.0000000000E+00   0.0000000000E+00   0.0000000000E+00
 -1.2690000000E+01   0.0000000000E+00   0.0000000000E+00   0.0000000000E+00
 -1.2680000000E+01   0.0000000000E+00   0.0000000000E+00   0.0000000000E+00
 -1.2670000000E+01   0.0000000000E+00   0.0000000000E+00   0.0000000000E+00
 -1.2660000000E+01   0.0000000000E+00   0.0000000000E+00   0.0000000000E+00
 -1.2650000000E+01   0.0000000000E+00   0.0000000000E+00   0.0000000000E+00
 -1.2640000000E+01   0.0000000000E+00   0.0000000000E+00   0.0000000000E+00
 -1.2630000000E+01   0.0000000000E+00   0.0000000000E+00   0.0000000000E+00
 -1.2620000000E+01   0.0000000000E+00   0.0000000000E+00   0.0000000000E+00
 -1.2610000000E+01   0.0000000000E+00   0.0000000000E+00   0.0000000000E+00
 -1.2600000000E+01   0.0000000000E+00   0.0000000000E+00   0.0000000000E+00
 -1.2590000000E+01   0.0000000000E+00   0.0000000000E+00   0.0000000000E+00
 -1.2580000000E+01   0.0000000000E+00   0.0000000000E+00   0.0000000000E+00
 -1.2570000000E+01   0.0000000000E+00   0.0000000000E+00   0.0000000000E+00
 -1.2560000000E+01   0.0000000000E+00   0.0000000000E+00   0.0000000000E+00
 -1.2550000000E+01   0.0000000000E+00   0.0000000000E+00   0.0000000000E+00
 -1.2540000000E+01   0.0000000000E+00   0.0000000000E+00   0.0000000000E+00
 -1.2530000000E+01   0.0000000000E+00   0.0000000000E+00   0.0000000000E+00
 -1.2520000000E+01   0.0000000000E+00   0.0000000000E+00   0.0000000000E+00
 -1.2510000000E+01   0.0000000000E+00   0.0000000000E+00   0.0000000000E+00
 -1.2500000000E+01   0.0000000000E+00   0.0000000000E+00   0.0000000000E+00
 -1.2490000000E+01   0.0000000000E+00   0.0000000000E+00   0.0000000000E+00
 -1.2480000000E+01   0.0000000000E+00   0.0000000000E+00   0.0000000000E+00
 -1.2470000000E+01   0.0000000000E+00   0.0000000000E+00   0.0000000000E+00
 -1.2460000000E+01   0.0000000000E+00   0.0000000000E+00   0.0000000000E+00
 -1.2450000000E+01   0.0000000000E+00   0.0000000000E+00   0.0000000000E+00
 -1.2440000000E+01   0.0000000000E+00   0.0000000000E+00   0.0000000000E+00
 -1.2430000000E+01   0.0000000000E+00   0.0000000000E+00   0.0000000000E+00
 -1.2420000000E+01   0.0000000000E+00   0.0000000000E+00   0.0000000000E+00
 -1.2410000000E+01   0.0000000000E+00   0.0000000000E+00   0.0000000000E+00
 -1.2400000000E+01   0.0000000000E+00   0.0000000000E+00   0.0000000000E+00
 -1.2390000000E+01   0.0000000000E+00   0.0000000000E+00   0.0000000000E+00
 -1.2380000000E+01   0.0000000000E+00   0.0000000000E+00   0.0000000000E+00
 -1.2370000000E+01   0.0000000000E+00   0.0000000000E+00   0.0000000000E+00
 -1.2360000000E+01   0.0000000000E+00   0.0000000000E+00   0.0000000000E+00
 -1.2350000000E+01   0.0000000000E+00   0.0000000000E+00   0.0000000000E+00
 -1.2340000000E+01   0.0000000000E+00   0.0000000000E+00   0.0000000000E+00
 -1.2330000000E+01   0.0000000000E+00   0.0000000000E+00   0.0000000000E+00
 -1.2320000000E+01   0.0000000000E+00   0.0000000000E+00   0.0000000000E+00
 -1.2310000000E+01   0.0000000000E+00   0.0000000000E+00   0.0000000000E+00
 -1.2300000000E+01   0.0000000000E+00   0.0000000000E+00   0.0000000000E+00
 -1.2290000000E+01   0.0000000000E+00   0.0000000000E+00   0.0000000000E+00
 -1.2280000000E+01   0.0000000000E+00   0.0000000000E+00   0.0000000000E+00
 -1.2270000000E+01   0.0000000000E+00   0.0000000000E+00   0.0000000000E+00
 -1.2260000000E+01   0.0000000000E+00   0.0000000000E+00   0.0000000000E+00
 -1.2250000000E+01   0.0000000000E+00   0.0000000000E+00   0.0000000000E+00
 -1.2240000000E+01   0.0000000000E+00   0.0000000000E+00   0.0000000000E+00
 -1.2230000000E+01   0.0000000000E+00   0.0000000000E+00   0.0000000000E+00
 -1.2220000000E+01   0.0000000000E+00   0.0000000000E+00   0.0000000000E+00
 -1.2210000000E+01   0.0000000000E+00   0.0000000000E+00   0.0000000000E+00
 -1.2200000000E+01   0.0000000000E+00   0.0000000000E+00   0.0000000000E+00
 -1.2190000000E+01   0.0000000000E+00   0.0000000000E+00   0.0000000000E+00
 -1.2180000000E+01   0.0000000000E+00   0.0000000000E+00   0.0000000000E+00
 -1.2170000000E+01   0.0000000000E+00   0.0000000000E+00   0.0000000000E+00
 -1.2160000000E+01   0.0000000000E+00   0.0000000000E+00   0.0000000000E+00
 -1.2150000000E+01   0.0000000000E+00   0.0000000000E+00   0.0000000000E+00
 -1.2140000000E+01   0.0000000000E+00   0.0000000000E+00   0.0000000000E+00
 -1.2130000000E+01   0.0000000000E+00   0.0000000000E+00   0.0000000000E+00
 -1.2120000000E+01   0.0000000000E+00   0.0000000000E+00   0.0000000000E+00
 -1.2110000000E+01   0.0000000000E+00   0.0000000000E+00   0.0000000000E+00
 -1.2100000000E+01   0.0000000000E+00   0.0000000000E+00   0.0000000000E+00
 -1.2090000000E+01   0.0000000000E+00   0.0000000000E+00   0.0000000000E+00
 -1.2080000000E+01   0.0000000000E+00   0.0000000000E+00   0.0000000000E+00
 -1.2070000000E+01   0.0000000000E+00   0.0000000000E+00   0.0000000000E+00
 -1.2060000000E+01   0.0000000000E+00   0.0000000000E+00   0.0000000000E+00
 -1.2050000000E+01   0.0000000000E+00   0.0000000000E+00   0.0000000000E+00
 -1.2040000000E+01   0.0000000000E+00   0.0000000000E+00   0.0000000000E+00
 -1.2030000000E+01   0.0000000000E+00   0.0000000000E+00   0.0000000000E+00
 -1.2020000000E+01   0.0000000000E+00   0.0000000000E+00   0.0000000000E+00
 -1.2010000000E+01   0.0000000000E+00   0.0000000000E+00   0.0000000000E+00
 -1.2000000000E+01   0.0000000000E+00   0.0000000000E+00   0.0000000000E+00
 -1.1990000000E+01   0.0000000000E+00   0.0000000000E+00   0.0000000000E+00
 -1.1980000000E+01   0.0000000000E+00   0.0000000000E+00   0.0000000000E+00
 -1.1970000000E+01   0.0000000000E+00   0.0000000000E+00   0.0000000000E+00
 -1.1960000000E+01   0.0000000000E+00   0.0000000000E+00   0.0000000000E+00
 -1.1950000000E+01   0.0000000000E+00   0.0000000000E+00   0.0000000000E+00
 -1.1940000000E+01   0.0000000000E+00   0.0000000000E+00   0.0000000000E+00
 -1.1930000000E+01   0.0000000000E+00   0.0000000000E+00   0.0000000000E+00
 -1.1920000000E+01   0.0000000000E+00   0.0000000000E+00   0.0000000000E+00
 -1.1910000000E+01   0.0000000000E+00   0.0000000000E+00   0.0000000000E+00
 -1.1900000000E+01   0.0000000000E+00   0.0000000000E+00   0.0000000000E+00
 -1.1890000000E+01   0.0000000000E+00   0.0000000000E+00   0.0000000000E+00
 -1.1880000000E+01   0.0000000000E+00   0.0000000000E+00   0.0000000000E+00
 -1.1870000000E+01   0.0000000000E+00   0.0000000000E+00   0.0000000000E+00
 -1.1860000000E+01   0.0000000000E+00   0.0000000000E+00   0.0000000000E+00
 -1.1850000000E+01   0.0000000000E+00   0.0000000000E+00   0.0000000000E+00
 -1.1840000000E+01   0.0000000000E+00   0.0000000000E+00   0.0000000000E+00
 -1.1830000000E+01   0.0000000000E+00   0.0000000000E+00   0.0000000000E+00
 -1.1820000000E+01   0.0000000000E+00   0.0000000000E+00   0.0000000000E+00
 -1.1810000000E+01   0.0000000000E+00   0.0000000000E+00   0.0000000000E+00
 -1.1800000000E+01   0.0000000000E+00   0.0000000000E+00   0.0000000000E+00
 -1.1790000000E+01   0.0000000000E+00   0.0000000000E+00   0.0000000000E+00
 -1.1780000000E+01   0.0000000000E+00   0.0000000000E+00   0.0000000000E+00
 -1.1770000000E+01   0.0000000000E+00   0.0000000000E+00   0.0000000000E+00
 -1.1760000000E+01   0.0000000000E+00   0.0000000000E+00   0.0000000000E+00
 -1.1750000000E+01   0.0000000000E+00   0.0000000000E+00   0.0000000000E+00
 -1.1740000000E+01   0.0000000000E+00   0.0000000000E+00   0.0000000000E+00
 -1.1730000000E+01   0.0000000000E+00   0.0000000000E+00   0.0000000000E+00
 -1.1720000000E+01   0.0000000000E+00   0.0000000000E+00   0.0000000000E+00
 -1.1710000000E+01   0.0000000000E+00   0.0000000000E+00   0.0000000000E+00
 -1.1700000000E+01   0.0000000000E+00   0.0000000000E+00   0.0000000000E+00
 -1.1690000000E+01   0.0000000000E+00   0.0000000000E+00   0.0000000000E+00
 -1.1680000000E+01   0.0000000000E+00   0.0000000000E+00   0.0000000000E+00
 -1.1670000000E+01   0.0000000000E+00   0.0000000000E+00   0.0000000000E+00
 -1.1660000000E+01   0.0000000000E+00   0.0000000000E+00   0.0000000000E+00
 -1.1650000000E+01   0.0000000000E+00   0.0000000000E+00   0.0000000000E+00
 -1.1640000000E+01   0.0000000000E+00   0.0000000000E+00   0.0000000000E+00
 -1.1630000000E+01   0.0000000000E+00   0.0000000000E+00   0.0000000000E+00
 -1.1620000000E+01   0.0000000000E+00   0.0000000000E+00   0.0000000000E+00
 -1.1610000000E+01   0.0000000000E+00   0.0000000000E+00   0.0000000000E+00
 -1.1600000000E+01   0.0000000000E+00   0.0000000000E+00   0.0000000000E+00
 -1.1590000000E+01   0.0000000000E+00   0.0000000000E+00   0.0000000000E+00
 -1.1580000000E+01   0.0000000000E+00   0.0000000000E+00   0.0000000000E+00
 -1.1570000000E+01   0.0000000000E+00   0.0000000000E+00   0.0000000000E+00
 -1.1560000000E+01   0.0000000000E+00   0.0000000000E+00   0.0000000000E+00
 -1.1550000000E+01   0.0000000000E+00   0.0000000000E+00   0.0000000000E+00
 -1.1540000000E+01   0.0000000000E+00   0.0000000000E+00   0.0000000000E+00
 -1.1530000000E+01   0.0000000000E+00   0.0000000000E+00   0.0000000000E+00
 -1.1520000000E+01   0.0000000000E+00   0.0000000000E+00   0.0000000000E+00
 -1.1510000000E+01   0.0000000000E+00   0.0000000000E+00   0.0000000000E+00
 -1.1500000000E+01   0.0000000000E+00   0.0000000000E+00   0.0000000000E+00
 -1.1490000000E+01   0.0000000000E+00   0.0000000000E+00   0.0000000000E+00
 -1.1480000000E+01   0.0000000000E+00   0.0000000000E+00   0.0000000000E+00
 -1.1470000000E+01   0.0000000000E+00   0.0000000000E+00   0.0000000000E+00
 -1.1460000000E+01   0.0000000000E+00   0.0000000000E+00   0.0000000000E+00
 -1.1450000000E+01   0.0000000000E+00   0.0000000000E+00   0.0000000000E+00
 -1.1440000000E+01   0.0000000000E+00   0.0000000000E+00   0.0000000000E+00
 -1.1430000000E+01   0.0000000000E+00   0.0000000000E+00   0.0000000000E+00
 -1.1420000000E+01   0.0000000000E+00   0.0000000000E+00   0.0000000000E+00
 -1.1410000000E+01   0.0000000000E+00   0.0000000000E+00   0.0000000000E+00
 -1.1400000000E+01   0.0000000000E+00   0.0000000000E+00   0.0000000000E+00
 -1.1390000000E+01   0.0000000000E+00   0.0000000000E+00   0.0000000000E+00
 -1.1380000000E+01   0.0000000000E+00   0.0000000000E+00   0.0000000000E+00
 -1.1370000000E+01   0.0000000000E+00   0.0000000000E+00   0.0000000000E+00
 -1.1360000000E+01   0.0000000000E+00   0.0000000000E+00   0.0000000000E+00
 -1.1350000000E+01   0.0000000000E+00   0.0000000000E+00   0.0000000000E+00
 -1.1340000000E+01   0.0000000000E+00   0.0000000000E+00   0.0000000000E+00
 -1.1330000000E+01   0.0000000000E+00   0.0000000000E+00   0.0000000000E+00
 -1.1320000000E+01   0.0000000000E+00   0.0000000000E+00   0.0000000000E+00
 -1.1310000000E+01   0.0000000000E+00   0.0000000000E+00   0.0000000000E+00
 -1.1300000000E+01   0.0000000000E+00   0.0000000000E+00   0.0000000000E+00
 -1.1290000000E+01   0.0000000000E+00   0.0000000000E+00   0.0000000000E+00
 -1.1280000000E+01   0.0000000000E+00   0.0000000000E+00   0.0000000000E+00
 -1.1270000000E+01   0.0000000000E+00   0.0000000000E+00   0.0000000000E+00
 -1.1260000000E+01   0.0000000000E+00   0.0000000000E+00   0.0000000000E+00
 -1.1250000000E+01   0.0000000000E+00   0.0000000000E+00   0.0000000000E+00
 -1.1240000000E+01   0.0000000000E+00   0.0000000000E+00   0.0000000000E+00
 -1.1230000000E+01   0.0000000000E+00   0.0000000000E+00   0.0000000000E+00
 -1.1220000000E+01   0.0000000000E+00   0.0000000000E+00   0.0000000000E+00
 -1.1210000000E+01   0.0000000000E+00   0.0000000000E+00   0.0000000000E+00
 -1.1200000000E+01   0.0000000000E+00   0.0000000000E+00   0.0000000000E+00
 -1.1190000000E+01   0.0000000000E+00   0.0000000000E+00   0.0000000000E+00
 -1.1180000000E+01   0.0000000000E+00   0.0000000000E+00   0.0000000000E+00
 -1.1170000000E+01   0.0000000000E+00   0.0000000000E+00   0.0000000000E+00
 -1.1160000000E+01   0.0000000000E+00   0.0000000000E+00   0.0000000000E+00
 -1.1150000000E+01   0.0000000000E+00   0.0000000000E+00   0.0000000000E+00
 -1.1140000000E+01   0.0000000000E+00   0.0000000000E+00   0.0000000000E+00
 -1.1130000000E+01   0.0000000000E+00   0.0000000000E+00   0.0000000000E+00
 -1.1120000000E+01   0.0000000000E+00   0.0000000000E+00   0.0000000000E+00
 -1.1110000000E+01   0.0000000000E+00   0.0000000000E+00   0.0000000000E+00
 -1.1100000000E+01   0.0000000000E+00   0.0000000000E+00   0.0000000000E+00
 -1.1090000000E+01   0.0000000000E+00   0.0000000000E+00   0.0000000000E+00
 -1.1080000000E+01   0.0000000000E+00   0.0000000000E+00   0.0000000000E+00
 -1.1070000000E+01   0.0000000000E+00   0.0000000000E+00   0.0000000000E+00
 -1.1060000000E+01   0.0000000000E+00   0.0000000000E+00   0.0000000000E+00
 -1.1050000000E+01   0.0000000000E+00   0.0000000000E+00   0.0000000000E+00
 -1.1040000000E+01   0.0000000000E+00   0.0000000000E+00   0.0000000000E+00
 -1.1030000000E+01   0.0000000000E+00   0.0000000000E+00   0.0000000000E+00
 -1.1020000000E+01   0.0000000000E+00   0.0000000000E+00   0.0000000000E+00
 -1.1010000000E+01   0.0000000000E+00   0.0000000000E+00   0.0000000000E+00
 -1.1000000000E+01   0.0000000000E+00   0.0000000000E+00   0.0000000000E+00
 -1.0990000000E+01   0.0000000000E+00   0.0000000000E+00   0.0000000000E+00
 -1.0980000000E+01   0.0000000000E+00   0.0000000000E+00   0.0000000000E+00
 -1.0970000000E+01   0.0000000000E+00   0.0000000000E+00   0.0000000000E+00
 -1.0960000000E+01   0.0000000000E+00   0.0000000000E+00   0.0000000000E+00
 -1.0950000000E+01   0.0000000000E+00   0.0000000000E+00   0.0000000000E+00
 -1.0940000000E+01   0.0000000000E+00   0.0000000000E+00   0.0000000000E+00
 -1.0930000000E+01   0.0000000000E+00   0.0000000000E+00   0.0000000000E+00
 -1.0920000000E+01   0.0000000000E+00   0.0000000000E+00   0.0000000000E+00
 -1.0910000000E+01   0.0000000000E+00   0.0000000000E+00   0.0000000000E+00
 -1.0900000000E+01   0.0000000000E+00   0.0000000000E+00   0.0000000000E+00
 -1.0890000000E+01   0.0000000000E+00   0.0000000000E+00   0.0000000000E+00
 -1.0880000000E+01   0.0000000000E+00   0.0000000000E+00   0.0000000000E+00
 -1.0870000000E+01   0.0000000000E+00   0.0000000000E+00   0.0000000000E+00
 -1.0860000000E+01   0.0000000000E+00   0.0000000000E+00   0.0000000000E+00
 -1.0850000000E+01   0.0000000000E+00   0.0000000000E+00   0.0000000000E+00
 -1.0840000000E+01   0.0000000000E+00   0.0000000000E+00   0.0000000000E+00
 -1.0830000000E+01   0.0000000000E+00   0.0000000000E+00   0.0000000000E+00
 -1.0820000000E+01   0.0000000000E+00   0.0000000000E+00   0.0000000000E+00
 -1.0810000000E+01   0.0000000000E+00   0.0000000000E+00   0.0000000000E+00
 -1.0800000000E+01   0.0000000000E+00   0.0000000000E+00   0.0000000000E+00
 -1.0790000000E+01   0.0000000000E+00   0.0000000000E+00   0.0000000000E+00
 -1.0780000000E+01   0.0000000000E+00   0.0000000000E+00   0.0000000000E+00
 -1.0770000000E+01   0.0000000000E+00   0.0000000000E+00   0.0000000000E+00
 -1.0760000000E+01   0.0000000000E+00   0.0000000000E+00   0.0000000000E+00
 -1.0750000000E+01   0.0000000000E+00   0.0000000000E+00   0.0000000000E+00
 -1.0740000000E+01   0.0000000000E+00   0.0000000000E+00   0.0000000000E+00
 -1.0730000000E+01   0.0000000000E+00   0.0000000000E+00   0.0000000000E+00
 -1.0720000000E+01   0.0000000000E+00   0.0000000000E+00   0.0000000000E+00
 -1.0710000000E+01   0.0000000000E+00   0.0000000000E+00   0.0000000000E+00
 -1.0700000000E+01   0.0000000000E+00   0.0000000000E+00   0.0000000000E+00
 -1.0690000000E+01   0.0000000000E+00   0.0000000000E+00   0.0000000000E+00
 -1.0680000000E+01   0.0000000000E+00   0.0000000000E+00   0.0000000000E+00
 -1.0670000000E+01   0.0000000000E+00   0.0000000000E+00   0.0000000000E+00
 -1.0660000000E+01   0.0000000000E+00   0.0000000000E+00   0.0000000000E+00
 -1.0650000000E+01   0.0000000000E+00   0.0000000000E+00   0.0000000000E+00
 -1.0640000000E+01   0.0000000000E+00   0.0000000000E+00   0.0000000000E+00
 -1.0630000000E+01   0.0000000000E+00   0.0000000000E+00   0.0000000000E+00
 -1.0620000000E+01   0.0000000000E+00   0.0000000000E+00   0.0000000000E+00
 -1.0610000000E+01   0.0000000000E+00   0.0000000000E+00   0.0000000000E+00
 -1.0600000000E+01   0.0000000000E+00   0.0000000000E+00   0.0000000000E+00
 -1.0590000000E+01   0.0000000000E+00   0.0000000000E+00   0.0000000000E+00
 -1.0580000000E+01   0.0000000000E+00   0.0000000000E+00   0.0000000000E+00
 -1.0570000000E+01   0.0000000000E+00   0.0000000000E+00   0.0000000000E+00
 -1.0560000000E+01   0.0000000000E+00   0.0000000000E+00   0.0000000000E+00
 -1.0550000000E+01   0.0000000000E+00   0.0000000000E+00   0.0000000000E+00
 -1.0540000000E+01   0.0000000000E+00   0.0000000000E+00   0.0000000000E+00
 -1.0530000000E+01   0.0000000000E+00   0.0000000000E+00   0.0000000000E+00
 -1.0520000000E+01   0.0000000000E+00   0.0000000000E+00   0.0000000000E+00
 -1.0510000000E+01   0.0000000000E+00   0.0000000000E+00   0.0000000000E+00
 -1.0500000000E+01   0.0000000000E+00   0.0000000000E+00   0.0000000000E+00
 -1.0490000000E+01   0.0000000000E+00   0.0000000000E+00   0.0000000000E+00
 -1.0480000000E+01   0.0000000000E+00   0.0000000000E+00   0.0000000000E+00
 -1.0470000000E+01   0.0000000000E+00   0.0000000000E+00   0.0000000000E+00
 -1.0460000000E+01   0.0000000000E+00   0.0000000000E+00   0.0000000000E+00
 -1.0450000000E+01   0.0000000000E+00   0.0000000000E+00   0.0000000000E+00
 -1.0440000000E+01   0.0000000000E+00   0.0000000000E+00   0.0000000000E+00
 -1.0430000000E+01   0.0000000000E+00   0.0000000000E+00   0.0000000000E+00
 -1.0420000000E+01   0.0000000000E+00   0.0000000000E+00   0.0000000000E+00
 -1.0410000000E+01   0.0000000000E+00   0.0000000000E+00   0.0000000000E+00
 -1.0400000000E+01   0.0000000000E+00   0.0000000000E+00   0.0000000000E+00
 -1.0390000000E+01   0.0000000000E+00   0.0000000000E+00   0.0000000000E+00
 -1.0380000000E+01   0.0000000000E+00   0.0000000000E+00   0.0000000000E+00
 -1.0370000000E+01   0.0000000000E+00   0.0000000000E+00   0.0000000000E+00
 -1.0360000000E+01   0.0000000000E+00   0.0000000000E+00   0.0000000000E+00
 -1.0350000000E+01   0.0000000000E+00   0.0000000000E+00   0.0000000000E+00
 -1.0340000000E+01   0.0000000000E+00   0.0000000000E+00   0.0000000000E+00
 -1.0330000000E+01   0.0000000000E+00   0.0000000000E+00   0.0000000000E+00
 -1.0320000000E+01   0.0000000000E+00   0.0000000000E+00   0.0000000000E+00
 -1.0310000000E+01   0.0000000000E+00   0.0000000000E+00   0.0000000000E+00
 -1.0300000000E+01   0.0000000000E+00   0.0000000000E+00   0.0000000000E+00
 -1.0290000000E+01   0.0000000000E+00   0.0000000000E+00   0.0000000000E+00
 -1.0280000000E+01   0.0000000000E+00   0.0000000000E+00   0.0000000000E+00
 -1.0270000000E+01   0.0000000000E+00   0.0000000000E+00   0.0000000000E+00
 -1.0260000000E+01   0.0000000000E+00   0.0000000000E+00   0.0000000000E+00
 -1.0250000000E+01   0.0000000000E+00   0.0000000000E+00   0.0000000000E+00
 -1.0240000000E+01   0.0000000000E+00   0.0000000000E+00   0.0000000000E+00
 -1.0230000000E+01   0.0000000000E+00   0.0000000000E+00   0.0000000000E+00
 -1.0220000000E+01   0.0000000000E+00   0.0000000000E+00   0.0000000000E+00
 -1.0210000000E+01   0.0000000000E+00   0.0000000000E+00   0.0000000000E+00
 -1.0200000000E+01   0.0000000000E+00   0.0000000000E+00   0.0000000000E+00
 -1.0190000000E+01   0.0000000000E+00   0.0000000000E+00   0.0000000000E+00
 -1.0180000000E+01   0.0000000000E+00   0.0000000000E+00   0.0000000000E+00
 -1.0170000000E+01   0.0000000000E+00   0.0000000000E+00   0.0000000000E+00
 -1.0160000000E+01   0.0000000000E+00   0.0000000000E+00   0.0000000000E+00
 -1.0150000000E+01   0.0000000000E+00   0.0000000000E+00   0.0000000000E+00
 -1.0140000000E+01   0.0000000000E+00   0.0000000000E+00   0.0000000000E+00
 -1.0130000000E+01   0.0000000000E+00   0.0000000000E+00   0.0000000000E+00
 -1.0120000000E+01   0.0000000000E+00   0.0000000000E+00   0.0000000000E+00
 -1.0110000000E+01   0.0000000000E+00   0.0000000000E+00   0.0000000000E+00
 -1.0100000000E+01   0.0000000000E+00   0.0000000000E+00   0.0000000000E+00
 -1.0090000000E+01   0.0000000000E+00   0.0000000000E+00   0.0000000000E+00
 -1.0080000000E+01   0.0000000000E+00   0.0000000000E+00   0.0000000000E+00
 -1.0070000000E+01   0.0000000000E+00   0.0000000000E+00   0.0000000000E+00
 -1.0060000000E+01   0.0000000000E+00   0.0000000000E+00   0.0000000000E+00
 -1.0050000000E+01   0.0000000000E+00   0.0000000000E+00   0.0000000000E+00
 -1.0040000000E+01   0.0000000000E+00   0.0000000000E+00   0.0000000000E+00
 -1.0030000000E+01   0.0000000000E+00   0.0000000000E+00   0.0000000000E+00
 -1.0020000000E+01   0.0000000000E+00   0.0000000000E+00   0.0000000000E+00
 -1.0010000000E+01   0.0000000000E+00   0.0000000000E+00   0.0000000000E+00
 -1.0000000000E+01   0.0000000000E+00   0.0000000000E+00   0.0000000000E+00
 -9.9900000000E+00   0.0000000000E+00   0.0000000000E+00   0.0000000000E+00
 -9.9800000000E+00   0.0000000000E+00   0.0000000000E+00   0.0000000000E+00
 -9.9700000000E+00   0.0000000000E+00   0.0000000000E+00   0.0000000000E+00
 -9.9600000000E+00   0.0000000000E+00   0.0000000000E+00   0.0000000000E+00
 -9.9500000000E+00   0.0000000000E+00   0.0000000000E+00   0.0000000000E+00
 -9.9400000000E+00   0.0000000000E+00   0.0000000000E+00   0.0000000000E+00
 -9.9300000000E+00   0.0000000000E+00   0.0000000000E+00   0.0000000000E+00
 -9.9200000000E+00   0.0000000000E+00   0.0000000000E+00   0.0000000000E+00
 -9.9100000000E+00   0.0000000000E+00   0.0000000000E+00   0.0000000000E+00
 -9.9000000000E+00   0.0000000000E+00   0.0000000000E+00   0.0000000000E+00
 -9.8900000000E+00   0.0000000000E+00   0.0000000000E+00   0.0000000000E+00
 -9.8800000000E+00   0.0000000000E+00   0.0000000000E+00   0.0000000000E+00
 -9.8700000000E+00   0.0000000000E+00   0.0000000000E+00   0.0000000000E+00
 -9.8600000000E+00   0.0000000000E+00   0.0000000000E+00   0.0000000000E+00
 -9.8500000000E+00   0.0000000000E+00   0.0000000000E+00   0.0000000000E+00
 -9.8400000000E+00   0.0000000000E+00   0.0000000000E+00   0.0000000000E+00
 -9.8300000000E+00   0.0000000000E+00   0.0000000000E+00   0.0000000000E+00
 -9.8200000000E+00   0.0000000000E+00   0.0000000000E+00   0.0000000000E+00
 -9.8100000000E+00   0.0000000000E+00   0.0000000000E+00   0.0000000000E+00
 -9.8000000000E+00   0.0000000000E+00   0.0000000000E+00   0.0000000000E+00
 -9.7900000000E+00   0.0000000000E+00   0.0000000000E+00   0.0000000000E+00
 -9.7800000000E+00   0.0000000000E+00   0.0000000000E+00   0.0000000000E+00
 -9.7700000000E+00   0.0000000000E+00   0.0000000000E+00   0.0000000000E+00
 -9.7600000000E+00   0.0000000000E+00   0.0000000000E+00   0.0000000000E+00
 -9.7500000000E+00   0.0000000000E+00   0.0000000000E+00   0.0000000000E+00
 -9.7400000000E+00   0.0000000000E+00   0.0000000000E+00   0.0000000000E+00
 -9.7300000000E+00   0.0000000000E+00   0.0000000000E+00   0.0000000000E+00
 -9.7200000000E+00   0.0000000000E+00   0.0000000000E+00   0.0000000000E+00
 -9.7100000000E+00   0.0000000000E+00   0.0000000000E+00   0.0000000000E+00
 -9.7000000000E+00   0.0000000000E+00   0.0000000000E+00   0.0000000000E+00
 -9.6900000000E+00   0.0000000000E+00   0.0000000000E+00   0.0000000000E+00
 -9.6800000000E+00   0.0000000000E+00   0.0000000000E+00   0.0000000000E+00
 -9.6700000000E+00   0.0000000000E+00   0.0000000000E+00   0.0000000000E+00
 -9.6600000000E+00   0.0000000000E+00   0.0000000000E+00   0.0000000000E+00
 -9.6500000000E+00   0.0000000000E+00   0.0000000000E+00   0.0000000000E+00
 -9.6400000000E+00   0.0000000000E+00   0.0000000000E+00   0.0000000000E+00
 -9.6300000000E+00   0.0000000000E+00   0.0000000000E+00   0.0000000000E+00
 -9.6200000000E+00   0.0000000000E+00   0.0000000000E+00   0.0000000000E+00
 -9.6100000000E+00   0.0000000000E+00   0.0000000000E+00   0.0000000000E+00
 -9.6000000000E+00   0.0000000000E+00   0.0000000000E+00   0.0000000000E+00
 -9.5900000000E+00   0.0000000000E+00   0.0000000000E+00   0.0000000000E+00
 -9.5800000000E+00   0.0000000000E+00   0.0000000000E+00   0.0000000000E+00
 -9.5700000000E+00   1.4364964010E-06   1.4364964010E-06   0.0000000000E+00
 -9.5600000000E+00   2.9101571816E-06   2.9101571816E-06   0.0000000000E+00
 -9.5500000000E+00   5.7788638291E-06   5.7788638291E-06   0.0000000000E+00
 -9.5400000000E+00   1.1248188506E-05   1.1248188506E-05   0.0000000000E+00
 -9.5300000000E+00   2.5018549154E-05   2.5018549154E-05   0.0000000000E+00
 -9.5200000000E+00   4.7298658431E-05   4.7298658431E-05   0.0000000000E+00
 -9.5100000000E+00   8.7711262834E-05   8.7711262834E-05   0.0000000000E+00
 -9.5000000000E+00   1.5955032430E-04   1.5955032430E-04   0.0000000000E+00
 -9.4900000000E+00   2.8470302546E-04   2.8470302546E-04   0.0000000000E+00
 -9.4800000000E+00   4.9837366543E-04   4.9837366543E-04   0.0000000000E+00
 -9.4700000000E+00   8.5586142781E-04   8.5586142781E-04   0.0000000000E+00
 -9.4600000000E+00   1.4419628343E-03   1.4419628343E-03   0.0000000000E+00
 -9.4500000000E+00   2.3859073337E-03   2.3859073337E-03   0.0000000000E+00
 -9.4400000000E+00   3.8704273940E-03   3.8704273940E-03   0.0000000000E+00
 -9.4300000000E+00   6.1608327503E-03   6.1608327503E-03   0.0000000000E+00
 -9.4200000000E+00   9.6231301213E-03   9.6231301213E-03   0.0000000000E+00
 -9.4100000000E+00   1.4750667338E-02   1.4750667338E-02   0.0000000000E+00
 -9.4000000000E+00   2.2189523273E-02   2.2189523273E-02   0.0000000000E+00
 -9.3900000000E+00   3.2761904440E-02   3.2760361473E-02   1.5429668577E-06
 -9.3800000000E+00   4.7476967724E-02   4.7473848117E-02   3.1196071924E-06
 -9.3700000000E+00   6.7531231245E-02   6.7525048841E-02   6.1824033905E-06
 -9.3600000000E+00   9.4291925069E-02   9.4279915460E-02   1.2009609176E-05
 -9.3500000000E+00   1.2925234987E-01   1.2922508369E-01   2.7266179564E-05
 -9.3400000000E+00   1.7394356162E-01   1.7389207731E-01   5.1484308248E-05
 -9.3300000000E+00   2.2984407136E-01   2.2974871684E-01   9.5354526012E-05
 -9.3200000000E+00   2.9823444194E-01   2.9806120617E-01   1.7323577107E-04
 -9.3100000000E+00   3.8004340344E-01   3.7973467415E-01   3.0872928667E-04
 -9.3000000000E+00   4.7568521847E-01   4.7514548873E-01   5.3972974641E-04
 -9.2900000000E+00   5.8490930176E-01   5.8398365034E-01   9.2565141879E-04
 -9.2800000000E+00   7.0668433795E-01   7.0512691890E-01   1.5574190546E-03
 -9.2700000000E+00   8.3914195478E-01   8.3656897717E-01   2.5729776104E-03
 -9.2600000000E+00   9.7958881803E-01   9.7542110431E-01   4.1677137196E-03
 -9.2500000000E+00   1.1246240921E+00   1.1180002681E+00   6.6238240023E-03
 -9.2400000000E+00   1.2703363577E+00   1.2600066837E+00   1.0329673974E-02
 -9.2300000000E+00   1.4125889202E+00   1.3967819086E+00   1.5807011604E-02
 -9.2200000000E+00   1.5473627872E+00   1.5236262552E+00   2.3736531980E-02
 -9.2100000000E+00   1.6711229432E+00   1.6361438259E+00   3.4979117310E-02
 -9.2000000000E+00   1.7811665077E+00   1.7305768707E+00   5.0589636971E-02
 -9.1900000000E+00   1.8758976864E+00   1.8040899502E+00   7.1807736147E-02
 -9.1800000000E+00   1.9550091245E+00   1.8549691826E+00   1.0003994194E-01
 -9.1700000000E+00   2.0195147456E+00   1.8827121846E+00   1.3680256103E-01
 -9.1600000000E+00   2.0716365530E+00   1.8879986525E+00   1.8363790049E-01
 -9.1500000000E+00   2.1145443703E+00   1.8725475338E+00   2.4199683654E-01
 -9.1400000000E+00   2.1519741139E+00   1.8388817738E+00   3.1309234008E-01
 -9.1300000000E+00   2.1877664042E+00   1.7900332247E+00   3.9773317949E-01
 -9.1200000000E+00   2.2253794872E+00   1.7292266940E+00   4.9615279317E-01
 -9.1100000000E+00   2.2674358104E+00   1.6595825125E+00   6.0785329790E-01
 -9.1000000000E+00   2.3153592842E+00   1.5838716809E+00   7.3148760329E-01
 -9.0900000000E+00   2.3691504067E+00   1.5043478601E+00   8.6480254658E-01
 -9.0800000000E+00   2.4273301381E+00   1.4226680296E+00   1.0046621085E+00
 -9.0700000000E+00   2.4870626590E+00   1.3399006702E+00   1.1471619888E+00
 -9.0600000000E+00   2.5444445158E+00   1.2566087619E+00   1.2878357539E+00
 -9.0500000000E+00   2.5949261060E+00   1.1729862558E+00   1.4219398502E+00
 -9.0400000000E+00   2.6338139487E+00   1.0890218937E+00   1.5447920550E+00
 -9.0300000000E+00   2.6567912935E+00   1.0046635662E+00   1.6521277273E+00
 -9.0200000000E+00   2.6603921171E+00   9.1995948621E-01   1.7404326309E+00
 -9.0100000000E+00   2.6423700639E+00   8.3515849091E-01   1.8072115730E+00
 -9.0000000000E+00   2.6019186291E+00   7.5075963431E-01   1.8511589947E+00
 -8.9900000000E+00   2.5397197576E+00   6.6750961799E-01   1.8722101396E+00
 -8.9800000000E+00   2.4578218316E+00   5.8635428126E-01   1.8714675503E+00
 -8.9700000000E+00   2.3593710305E+00   5.0835630186E-01   1.8510147287E+00
 -8.9600000000E+00   2.2482386710E+00   4.3459474235E-01   1.8136439286E+00
 -8.9500000000E+00   2.1285986030E+00   3.6606285221E-01   1.7625357508E+00
 -8.9400000000E+00   2.0045116095E+00   3.0357877919E-01   1.7009328303E+00
 -8.9300000000E+00   1.8795681245E+00   2.4772012692E-01   1.6318479976E+00
 -8.9200000000E+00   1.7566280047E+00   1.9878844653E-01   1.5578395582E+00
 -8.9100000000E+00   1.6376791289E+00   1.5680469150E-01   1.4808744374E+00
 -8.9000000000E+00   1.5238183201E+00   1.2153223111E-01   1.4022860890E+00
 -8.8900000000E+00   1.4153413825E+00   9.2520819116E-02   1.3228205634E+00
 -8.8800000000E+00   1.3119162045E+00   6.9163250008E-02   1.2427529545E+00
 -8.8700000000E+00   1.2128052607E+00   5.0756290243E-02   1.1620489704E+00
 -8.8600000000E+00   1.1171073132E+00   3.6564078420E-02   1.0805432347E+00
 -8.8500000000E+00   1.0239570131E+00   2.5849955720E-02   9.9810705734E-01
 -8.8400000000E+00   9.3272394255E-01   1.7940789042E-02   9.1478315351E-01
 -8.8300000000E+00   8.4310438177E-01   1.2232321320E-02   8.3087206045E-01
 -8.8200000000E+00   7.5517669759E-01   8.2131703819E-03   7.4696352720E-01
 -8.8100000000E+00   6.6938093278E-01   5.4663062537E-03   6.6391462653E-01
 -8.8000000000E+00   5.8645947270E-01   3.6758779994E-03   5.8278359470E-01
 -8.7900000000E+00   5.0734284624E-01   2.6092820334E-03   5.0473356421E-01
 -8.7800000000E+00   4.3304605174E-01   2.1231454458E-03   4.3092290629E-01
 -8.7700000000E+00   3.6455578000E-01   2.1570178859E-03   3.6239876211E-01
 -8.7600000000E+00   3.0274223818E-01   2.7344010735E-03   3.0000783710E-01
 -8.7500000000E+00   2.4830304443E-01   3.9687239289E-03   2.4433432050E-01
 -8.7400000000E+00   2.0174432478E-01   6.0745985612E-03   1.9566972622E-01
 -8.7300000000E+00   1.6339749913E-01   9.3830729635E-03   1.5401442617E-01
 -8.7200000000E+00   1.3346974165E-01   1.4363308307E-02   1.1910643334E-01
 -8.7100000000E+00   1.1210613741E-01   2.1636019805E-02   9.0470117609E-02
 -8.7000000000E+00   9.9467514722E-02   3.1991293718E-02   6.7476221004E-02
 -8.6900000000E+00   9.5795239338E-02   4.6390535921E-02   4.9404703417E-02
 -8.6800000000E+00   1.0146020726E-01   6.5952531171E-02   3.5507676088E-02
 -8.6700000000E+00   1.1696050789E-01   9.1915488684E-02   2.5045019208E-02
 -8.6600000000E+00   1.4290948426E-01   1.2556847801E-01   1.7341006245E-02
 -8.6500000000E+00   1.7994875558E-01   1.6815472613E-01   1.1794029449E-02
 -8.6400000000E+00   2.2862897054E-01   2.2073227225E-01   7.8966982892E-03
 -8.6300000000E+00   2.8925826812E-01   2.8402142134E-01   5.2368467801E-03
 -8.6200000000E+00   3.6173424813E-01   3.5823256728E-01   3.5016808482E-03
 -8.6100000000E+00   4.4536384059E-01   4.4290230740E-01   2.4615331865E-03
 -8.6000000000E+00   5.3873261677E-01   5.3675973804E-01   1.9728787322E-03
 -8.5900000000E+00   6.3962025057E-01   6.3764834832E-01   1.9719022492E-03
 -8.5800000000E+00   7.4500144325E-01   7.4252669253E-01   2.4747507204E-03
 -8.5700000000E+00   8.5114702055E-01   8.4756425976E-01   3.5827607907E-03
 -8.5600000000E+00   9.5383103491E-01   9.4833797888E-01   5.4930560301E-03
 -8.5500000000E+00   1.0486341795E+00   1.0401208636E+00   8.5133159586E-03
 -8.5400000000E+00   1.1313232142E+00   1.1182395339E+00   1.3083680347E-02
 -8.5300000000E+00   1.1982549105E+00   1.1784643838E+00   1.9790526699E-02
 -8.5200000000E+00   1.2467739687E+00   1.2173876264E+00   2.9386342282E-02
 -8.5100000000E+00   1.2755370139E+00   1.2327423774E+00   4.2794636565E-02
 -8.5000000000E+00   1.2847217959E+00   1.2236212462E+00   6.1100549674E-02
 -8.4900000000E+00   1.2760840286E+00   1.1905651207E+00   8.5518907872E-02
 -8.4800000000E+00   1.2528429341E+00   1.1355100612E+00   1.1733287290E-01
 -8.4700000000E+00   1.2194041398E+00   1.0615995560E+00   1.5780458373E-01
 -8.4600000000E+00   1.1809307947E+00   9.7288746034E-01   2.0804333435E-01
 -8.4500000000E+00   1.1428284399E+00   8.7397064638E-01   2.6885779353E-01
 -8.4400000000E+00   1.1101832796E+00   7.6959755421E-01   3.4058572535E-01
 -8.4300000000E+00   1.0872257759E+00   6.6429859323E-01   4.2292718271E-01
 -8.4200000000E+00   1.0768795752E+00   5.6207729084E-01   5.1480228439E-01
 -8.4100000000E+00   1.0804478368E+00   4.6618900915E-01   6.1425882765E-01
 -8.4000000000E+00   1.0974732000E+00   3.7901948721E-01   7.1845371280E-01
 -8.3900000000E+00   1.1257875309E+00   3.0206110135E-01   8.2372642950E-01
 -8.3800000000E+00   1.1617456358E+00   2.3597285736E-01   9.2577277848E-01
 -8.3700000000E+00   1.2006158604E+00   1.8070223563E-01   1.0199136247E+00
 -8.3600000000E+00   1.2370823873E+00   1.3564364817E-01   1.1014387391E+00
 -8.3500000000E+00   1.2658013232E+00   9.9809090436E-02   1.1659922328E+00
 -8.3400000000E+00   1.2819469699E+00   7.1990580097E-02   1.2099563898E+00
 -8.3300000000E+00   1.2816869080E+00   5.0899841184E-02   1.2307870668E+00
 -8.3200000000E+00   1.2625345284E+00   3.5277077635E-02   1.2272574508E+00
 -8.3100000000E+00   1.2235441834E+00   2.3966490037E-02   1.1995776934E+00
 -8.3000000000E+00   1.1653349040E+00   1.5960708702E-02   1.1493741953E+00
 -8.2900000000E+00   1.0899506207E+00   1.0419240251E-02   1.0795313805E+00
 -8.2800000000E+00   1.0005847670E+00   6.6673970756E-03   9.9391736988E-01
 -8.2700000000E+00   9.0121211343E-01   4.1822810899E-03   8.9702983234E-01
 -8.2600000000E+00   7.9617865498E-01   2.5716211546E-03   7.9360703383E-01
 -8.2500000000E+00   6.8980057304E-01   1.5500220559E-03   6.8825055099E-01
 -8.2400000000E+00   5.8601633827E-01   9.1581157176E-04   5.8510052670E-01
 -8.2300000000E+00   4.8812367644E-01   5.3041033757E-04   4.8759326611E-01
 -8.2200000000E+00   3.9861998372E-01   3.0318087660E-04   3.9831680284E-01
 -8.2100000000E+00   3.1913719241E-01   1.7169706654E-04   3.1896549534E-01
 -8.2000000000E+00   2.5048165680E-01   9.9505996224E-05   2.5038215080E-01
 -8.1900000000E+00   1.9273178012E-01   6.4465203419E-05   1.9266731492E-01
 -8.1800000000E+00   1.4538602144E-01   5.5048900490E-05   1.4533097254E-01
 -8.1700000000E+00   1.0752946639E-01   6.7642032981E-05   1.0746182436E-01
 -8.1600000000E+00   7.7998160351E-02   1.0549348514E-04   7.7892666866E-02
 -8.1500000000E+00   5.5525071632E-02   1.7913854818E-04   5.5345933084E-02
 -8.1400000000E+00   3.8856445005E-02   3.0665001899E-04   3.8549794986E-02
 -8.1300000000E+00   2.6845337667E-02   5.2411288683E-04   2.6321224780E-02
 -8.1200000000E+00   1.8495307351E-02   8.7805312092E-04   1.7617254230E-02
 -8.1100000000E+00   1.3000849468E-02   1.4418857637E-03   1.1558963704E-02
 -8.1000000000E+00   9.7553378774E-03   2.3208925117E-03   7.4344453657E-03
 -8.0900000000E+00   8.3491422644E-03   3.6617889604E-03   4.6873533039E-03
 -8.0800000000E+00   8.5600434943E-03   5.6629888318E-03   2.8970546625E-03
 -8.0700000000E+00   1.0339682776E-02   8.5844447457E-03   1.7552380305E-03
 -8.0600000000E+00   1.3797839197E-02   1.2755363056E-02   1.0424761416E-03
 -8.0500000000E+00   1.9184454318E-02   1.8577511963E-02   6.0694235498E-04
 -8.0400000000E+00   2.6869234830E-02   2.6521396306E-02   3.4783852389E-04
 -8.0300000000E+00   3.7309140236E-02   3.7112424843E-02   1.9671539247E-04
 -8.0200000000E+00   5.1016596261E-02   5.0904524774E-02   1.1207148633E-04
 -8.0100000000E+00   6.8508009632E-02   6.8439614407E-02   6.8395225261E-05
 -8.0000000000E+00   9.0244578815E-02   9.0192999660E-02   5.1579154892E-05
 -7.9900000000E+00   1.1656274761E-01   1.1650705335E-01   5.5694258019E-05
 -7.9800000000E+00   1.4759968680E-01   1.4751823791E-01   8.1448890773E-05
 -7.9700000000E+00   1.8322133449E-01   1.8308523601E-01   1.3609847487E-04
 -7.9600000000E+00   2.2296143627E-01   2.2272811558E-01   2.3332069601E-04
 -7.9500000000E+00   2.6599138327E-01   2.6558948174E-01   4.0190152423E-04
 -7.9400000000E+00   3.1110802325E-01   3.1042794553E-01   6.8007772560E-04
 -7.9300000000E+00   3.5677968284E-01   3.5565167645E-01   1.1280063867E-03
 -7.9200000000E+00   4.0122927735E-01   3.9939536457E-01   1.8339127792E-03
 -7.9100000000E+00   4.4256060391E-01   4.3963806767E-01   2.9225362411E-03
 -7.9000000000E+00   4.7891817321E-01   4.7435302119E-01   4.5651520214E-03
 -7.8900000000E+00   5.0866445558E-01   5.0167465648E-01   6.9897991016E-03
 -7.8800000000E+00   5.3055427401E-01   5.2006396568E-01   1.0490308333E-02
 -7.8700000000E+00   5.4388404555E-01   5.2845191377E-01   1.5432131780E-02
 -7.8600000000E+00   5.4859477142E-01   5.2634232809E-01   2.2252443326E-02
 -7.8500000000E+00   5.4531215496E-01   5.1386049336E-01   3.1451661605E-02
 -7.8400000000E+00   5.3531444807E-01   4.9174083271E-01   4.3573615364E-02
 -7.8300000000E+00   5.2042755825E-01   4.6125535955E-01   5.9172198697E-02
 -7.8200000000E+00   5.0285626185E-01   4.2409259461E-01   7.8763667245E-02
 -7.8100000000E+00   4.8496869272E-01   3.8220297471E-01   1.0276571801E-01
 -7.8000000000E+00   4.6905743591E-01   3.3763040298E-01   1.3142703293E-01
 -7.7900000000E+00   4.5710509666E-01   2.9235136642E-01   1.6475373024E-01
 -7.7800000000E+00   4.5057414311E-01   2.4813246920E-01   2.0244167390E-01
 -7.7700000000E+00   4.5025868622E-01   2.0643342774E-01   2.4382525848E-01
 -7.7600000000E+00   4.5619836312E-01   1.6834482144E-01   2.8785354168E-01
 -7.7500000000E+00   4.6767530154E-01   1.3457228039E-01   3.3310302115E-01
 -7.7400000000E+00   4.8329049036E-01   1.0545767327E-01   3.7783281709E-01
 -7.7300000000E+00   5.0111182150E-01   8.1029029802E-02   4.2008279170E-01
 -7.7200000000E+00   5.1887744009E-01   6.1068555288E-02   4.5780888480E-01
 -7.7100000000E+00   5.3423190667E-01   4.5188224576E-02   4.8904368210E-01
 -7.7000000000E+00   5.4496915333E-01   3.2904027970E-02   5.1206512536E-01
 -7.6900000000E+00   5.4925581186E-01   2.3702405421E-02   5.2555340644E-01
 -7.6800000000E+00   5.4581134496E-01   1.7095139165E-02   5.2871620579E-01
 -7.6700000000E+00   5.3402720893E-01   1.2661456788E-02   5.2136575214E-01
 -7.6600000000E+00   5.1401524071E-01   1.0077961204E-02   5.0393727951E-01
 -7.6500000000E+00   4.8658442801E-01   9.1380697355E-03   4.7744635827E-01
 -7.6400000000E+00   4.5315381961E-01   9.7629013632E-03   4.4339091825E-01
 -7.6300000000E+00   4.1561623709E-01   1.2005127275E-02   4.0361110982E-01
 -7.6200000000E+00   3.7617164221E-01   1.6046418392E-02   3.6012522381E-01
 -7.6100000000E+00   3.3715000615E-01   2.2188063388E-02   3.1496194276E-01
 -7.6000000000E+00   3.0084323047E-01   3.0833390156E-02   2.7000984031E-01
 -7.5900000000E+00   2.6935060683E-01   4.2460087989E-02   2.2689051884E-01
 -7.5800000000E+00   2.4446492469E-01   5.7580634593E-02   1.8688429010E-01
 -7.5700000000E+00   2.2757863456E-01   7.6689931769E-02   1.5088870279E-01
 -7.5600000000E+00   2.1962364552E-01   1.0020096705E-01   1.1942267847E-01
 -7.5500000000E+00   2.2103500112E-01   1.2837170028E-01   9.2663300836E-02
 -7.5400000000E+00   2.3173519152E-01   1.6122909528E-01   7.0506096244E-02
 -7.5300000000E+00   2.5113679196E-01   1.9849878144E-01   5.2638010527E-02
 -7.5200000000E+00   2.7816385084E-01   2.3955064067E-01   3.8613210175E-02
 -7.5100000000E+00   3.1129501537E-01   2.8337107562E-01   2.7923939755E-02
 -7.5000000000E+00   3.4863197072E-01   3.2857062754E-01   2.0061343180E-02
 -7.4900000000E+00   3.8800176084E-01   3.7343793333E-01   1.4563827510E-02
 -7.4800000000E+00   4.2708045244E-01   4.1602768767E-01   1.1052764772E-02
 -7.4700000000E+00   4.6355410888E-01   4.5429729337E-01   9.2568155151E-03
 -7.4600000000E+00   4.9529088596E-01   4.8626406255E-01   9.0268234108E-03
 -7.4500000000E+00   5.2051712000E-01   5.1017398517E-01   1.0343134838E-02
 -7.4400000000E+00   5.3797724278E-01   5.2466072465E-01   1.3316518134E-02
 -7.4300000000E+00   5.4705768981E-01   5.2887484445E-01   1.8182845364E-02
 -7.4200000000E+00   5.4785691670E-01   5.2256627344E-01   2.5290643258E-02
 -7.4100000000E+00   5.4118868760E-01   5.0610887540E-01   3.5079812205E-02
 -7.4000000000E+00   5.2851328408E-01   4.8046376518E-01   4.8049518898E-02
 -7.3900000000E+00   5.1180007080E-01   4.4708637781E-01   6.4713692990E-02
 -7.3800000000E+00   4.9333358915E-01   4.0778978749E-01   8.5543801656E-02
 -7.3700000000E+00   4.7548271237E-01   3.6458211778E-01   1.1090059459E-01
 -7.3600000000E+00   4.6045734234E-01   3.1949825588E-01   1.4095908646E-01
 -7.3500000000E+00   4.5007903191E-01   2.7444525752E-01   1.7563377440E-01
 -7.3400000000E+00   4.4559061927E-01   2.3107719100E-01   2.1451342827E-01
 -7.3300000000E+00   4.4752572235E-01   1.9070959289E-01   2.5681612946E-01
 -7.3200000000E+00   4.5565126682E-01   1.5427732813E-01   3.0137393869E-01
 -7.3100000000E+00   4.6899615459E-01   1.2233360925E-01   3.4666254534E-01
 -7.3000000000E+00   4.8594408251E-01   9.5083154082E-02   3.9086092843E-01
 -7.2900000000E+00   5.0440763720E-01   7.2439506095E-02   4.3196813111E-01
 -7.2800000000E+00   5.2204103399E-01   5.4095543913E-02   4.6794549007E-01
 -7.2700000000E+00   5.3647856205E-01   3.9596938904E-02   4.9688162315E-01
 -7.2600000000E+00   5.4557004856E-01   2.8410301687E-02   5.1715974687E-01
 -7.2500000000E+00   5.4758746720E-01   1.9980400436E-02   5.2760706676E-01
 -7.2400000000E+00   5.4138064057E-01   1.3773573808E-02   5.2760706676E-01
 -7.2300000000E+00   5.2646660735E-01   9.3068604857E-03   5.1715974686E-01
 -7.2200000000E+00   5.0304578277E-01   6.1641596335E-03   4.9688162314E-01
 -7.2100000000E+00   4.7194732029E-01   4.0018302334E-03   4.6794549006E-01
 -7.2000000000E+00   4.3451471245E-01   2.5465813556E-03   4.3196813109E-01
 -7.1900000000E+00   3.9244936748E-01   1.5884390665E-03   3.9086092841E-01
 -7.1800000000E+00   3.4763372072E-01   9.7117540321E-04   3.4666254532E-01
 -7.1700000000E+00   3.0195596000E-01   5.8202132840E-04   3.0137393868E-01
 -7.1600000000E+00   2.5715582617E-01   3.4189616977E-04   2.5681393000E-01
 -7.1500000000E+00   2.1470588841E-01   1.9686281071E-04   2.1450902560E-01
 -7.1400000000E+00   1.7573624456E-01   1.1110848805E-04   1.7562513607E-01
 -7.1300000000E+00   1.4100394050E-01   6.1467408656E-05   1.4094247309E-01
 -7.1200000000E+00   1.1090260778E-01   3.3331639925E-05   1.1086927614E-01
 -7.1100000000E+00   8.5503647875E-02   1.7716689302E-05   8.5485931186E-02
 -7.1000000000E+00   6.4618107357E-02   9.2304434684E-06   6.4608876913E-02
 -7.0900000000E+00   4.7868147095E-02   4.7138599456E-06   4.7863433235E-02
 -7.0800000000E+00   3.4758345590E-02   2.3596353485E-06   3.4755985954E-02
 -7.0700000000E+00   2.4738279341E-02   0.0000000000E+00   2.4738279341E-02
 -7.0600000000E+00   1.7259311844E-02   0.0000000000E+00   1.7259311844E-02
 -7.0500000000E+00   1.1802977319E-02   0.0000000000E+00   1.1802977319E-02
 -7.0400000000E+00   7.9117723000E-03   0.0000000000E+00   7.9117723000E-03
 -7.0300000000E+00   5.1984048288E-03   0.0000000000E+00   5.1984048288E-03
 -7.0200000000E+00   3.3479620413E-03   0.0000000000E+00   3.3479620413E-03
 -7.0100000000E+00   2.1135136824E-03   0.0000000000E+00   2.1135136824E-03
 -7.0000000000E+00   1.3078071650E-03   0.0000000000E+00   1.3078071650E-03
 -6.9900000000E+00   7.9322514258E-04   0.0000000000E+00   7.9322514258E-04
 -6.9800000000E+00   4.7158864643E-04   0.0000000000E+00   4.7158864643E-04
 -6.9700000000E+00   2.7481745955E-04   0.0000000000E+00   2.7481745955E-04
 -6.9600000000E+00   1.5697822380E-04   0.0000000000E+00   1.5697822380E-04
 -6.9500000000E+00   8.7891851089E-05   0.0000000000E+00   8.7891851089E-05
 -6.9400000000E+00   4.8236070595E-05   0.0000000000E+00   4.8236070595E-05
 -6.9300000000E+00   2.5948325868E-05   0.0000000000E+00   2.5948325868E-05
 -6.9200000000E+00   1.3682355647E-05   0.0000000000E+00   1.3682355647E-05
 -6.9100000000E+00   7.0717437750E-06   0.0000000000E+00   7.0717437750E-06
 -6.9000000000E+00   3.5826655621E-06   0.0000000000E+00   3.5826655621E-06
 -6.8900000000E+00   1.7790990665E-06   0.0000000000E+00   1.7790990665E-06
 -6.8800000000E+00   0.0000000000E+00   0.0000000000E+00   0.0000000000E+00
 -6.8700000000E+00   0.0000000000E+00   0.0000000000E+00   0.0000000000E+00
 -6.8600000000E+00   0.0000000000E+00   0.0000000000E+00   0.0000000000E+00
 -6.8500000000E+00   0.0000000000E+00   0.0000000000E+00   0.0000000000E+00
 -6.8400000000E+00   0.0000000000E+00   0.0000000000E+00   0.0000000000E+00
 -6.8300000000E+00   0.0000000000E+00   0.0000000000E+00   0.0000000000E+00
 -6.8200000000E+00   0.0000000000E+00   0.0000000000E+00   0.0000000000E+00
 -6.8100000000E+00   0.0000000000E+00   0.0000000000E+00   0.0000000000E+00
 -6.8000000000E+00   4.7192706984E-06   4.7192706984E-06   0.0000000000E+00
 -6.7900000000E+00   9.4277198938E-06   9.4277198938E-06   0.0000000000E+00
 -6.7800000000E+00   1.8460886942E-05   1.8460886942E-05   0.0000000000E+00
 -6.7700000000E+00   3.5433378614E-05   3.5433378614E-05   0.0000000000E+00
 -6.7600000000E+00   6.8442378934E-05   6.8442378934E-05   0.0000000000E+00
 -6.7500000000E+00   1.2651748290E-04   1.2651748290E-04   0.0000000000E+00
 -6.7400000000E+00   2.2928871992E-04   2.2928871992E-04   0.0000000000E+00
 -6.7300000000E+00   4.0740797715E-04   4.0740797715E-04   0.0000000000E+00
 -6.7200000000E+00   7.0974066556E-04   7.0974066556E-04   0.0000000000E+00
 -6.7100000000E+00   1.2122787277E-03   1.2122787277E-03   0.0000000000E+00
 -6.7000000000E+00   2.0302426579E-03   2.0302426579E-03   0.0000000000E+00
 -6.6900000000E+00   3.3338563574E-03   3.3338563574E-03   0.0000000000E+00
 -6.6800000000E+00   5.3679801717E-03   5.3679801717E-03   0.0000000000E+00
 -6.6700000000E+00   8.4752491148E-03   8.4752491148E-03   0.0000000000E+00
 -6.6600000000E+00   1.3121544412E-02   1.3121544412E-02   0.0000000000E+00
 -6.6500000000E+00   1.9921528140E-02   1.9921528140E-02   0.0000000000E+00
 -6.6400000000E+00   2.9660661302E-02   2.9660661302E-02   0.0000000000E+00
 -6.6300000000E+00   4.3308762919E-02   4.3308762919E-02   0.0000000000E+00
 -6.6200000000E+00   6.2019008212E-02   6.2019008212E-02   0.0000000000E+00
 -6.6100000000E+00   8.7110049018E-02   8.7105650119E-02   4.3988989660E-06
 -6.6000000000E+00   1.2000287046E-01   1.1999406516E-01   8.8053040653E-06
 -6.5900000000E+00   1.6215560067E-01   1.6213832405E-01   1.7276622284E-05
 -6.5800000000E+00   2.1493781424E-01   2.1490458753E-01   3.3226716780E-05
 -6.5700000000E+00   2.7948762047E-01   2.7942320449E-01   6.4415981108E-05
 -6.5600000000E+00   3.5653741312E-01   3.5641808953E-01   1.1932358899E-04
 -6.5500000000E+00   4.4624476660E-01   4.4602806272E-01   2.1670388256E-04
 -6.5400000000E+00   5.4802616690E-01   5.4764031323E-01   3.8585367144E-04
 -6.5300000000E+00   6.6043339204E-01   6.5975979122E-01   6.7360081778E-04
